%YAML:1.0
---
opencv_ml_svm:
   format: 3
   svmType: C_SVC
   kernel:
      type: RBF
      gamma: 5.0624999999999998e-01
   C: 1.2500000000000000e+01
   term_criteria: { epsilon:1.1920928955078125e-07, iterations:1000 }
   var_count: 324
   class_count: 8
   class_labels: !!opencv-matrix
      rows: 8
      cols: 1
      dt: i
      data: [ 0, 1, 2, 3, 4, 5, 6, 7 ]
   sv_total: 142
   support_vectors:
      - [ 2.52539348e-02, 5.25844935e-03, 1.16503142e-01, 2.85853177e-01,
          2.16968596e-01, 1.95645751e-03, 1.09729050e-02, 2.85853177e-01,
          2.85853177e-01, 6.69307485e-02, 2.12562410e-03, 7.61924386e-02,
          2.85853177e-01, 2.61882484e-01, 9.93225630e-03, 4.64124344e-02,
          2.85853177e-01, 2.85853177e-01, 4.80456091e-03, 1.23123126e-03,
          5.18522300e-02, 2.85853177e-01, 4.04362604e-02, 1.11200346e-03,
          2.26549758e-03, 1.20616838e-01, 1.01391599e-01, 2.38420498e-02,
          3.44744767e-04, 9.73691195e-02, 2.85853177e-01, 1.15117952e-01,
          3.44721042e-02, 1.02355614e-01, 2.62964219e-01, 2.59970069e-01,
          1.85848445e-01, 3.30385054e-03, 4.28678915e-02, 3.07434857e-01,
          3.07434857e-01, 6.52640238e-02, 9.95521769e-02, 2.10509211e-01,
          3.07434857e-01, 2.11322963e-01, 1.20460638e-03, 0.,
          1.93110809e-01, 3.07434857e-01, 5.74198812e-02, 2.12165364e-03,
          1.36864686e-03, 3.07434857e-01, 3.21959704e-02, 0.,
          8.87627527e-02, 3.07434857e-01, 1.50477573e-01, 7.01302290e-02,
          2.40623698e-01, 2.65951782e-01, 2.90804029e-01, 0., 0., 0., 0.,
          0., 0., 5.22766449e-03, 1.74255471e-03, 0., 2.88507819e-01, 0.,
          0., 2.76794434e-01, 3.95372629e-01, 6.27385527e-02,
          4.09731036e-03, 0., 3.95372629e-01, 3.25624615e-01, 0.,
          1.41392520e-03, 2.93391675e-01, 3.95372629e-01, 1.21444196e-01,
          7.87381362e-03, 6.59349840e-03, 3.95372629e-01, 0., 0., 0., 0.,
          0., 0., 0., 0., 0., 0., 0., 0., 0., 1.01171841e-03, 0., 0., 0.,
          0., 3.40466085e-03, 0., 7.01046437e-02, 3.40143353e-01,
          9.47582126e-02, 6.12211367e-03, 5.29010175e-03, 4.87647802e-02,
          4.81432490e-02, 3.87166888e-02, 0., 2.97918320e-01,
          3.83544326e-01, 3.83544326e-01, 1.89785495e-01, 3.83544326e-01,
          3.83544326e-01, 3.83544326e-01, 0., 0., 0., 0., 0., 0., 0., 0.,
          0., 0., 0., 0., 0., 0., 0., 0., 0., 0., 4.52287197e-02, 0.,
          2.37934351e-01, 4.15941626e-01, 4.15941626e-01, 2.68087536e-01,
          4.15941626e-01, 4.15941626e-01, 4.15941626e-01, 0., 0., 0., 0.,
          0., 0., 1.58305485e-02, 5.27684949e-03, 0., 0., 0., 0., 0., 0.,
          0., 0., 0., 0., 0., 0., 0., 0., 0., 0., 0., 0., 0., 0., 0., 0.,
          0., 0., 0., 0., 0., 0., 0., 0., 0., 0., 0., 0., 0., 0., 0., 0.,
          0., 0., 0., 0., 0., 0., 0., 0., 0., 0., 0., 0., 0., 0., 0., 0.,
          0., 0., 0., 0., 0., 0., 0., 0., 0., 0., 0., 0., 0., 0., 0., 0.,
          0., 0., 0., 0., 0., 0., 0., 0., 0., 0., 0., 0., 0., 0., 0., 0.,
          0., 0., 0., 0., 0., 0., 0., 0., 0., 0., 0., 0., 0., 0., 0., 0.,
          0., 0., 0., 0., 0., 0., 0., 0., 0., 0., 0., 0., 0., 0., 0., 0.,
          0., 0., 0., 0., 0., 0., 0., 0., 0., 0., 0., 0., 0., 0., 0., 0.,
          0., 0., 0., 0., 0., 0., 0., 0., 0., 0., 0., 0., 0., 0., 0., 0.,
          0., 0., 0., 0., 0., 0., 0., 0., 0., 0., 0., 0., 0. ]
      - [ 2.84913629e-01, 2.84913629e-01, 3.31141688e-02, 1.31091903e-04,
          7.09709823e-02, 2.84913629e-01, 1.50915712e-01, 1.06463190e-02,
          1.96298342e-02, 2.84913629e-01, 2.84913629e-01, 1.92482732e-02,
          4.07586154e-03, 2.05490440e-01, 2.84913629e-01, 1.14719398e-01,
          1.76792201e-02, 6.23857267e-02, 1.98715940e-01, 2.84913629e-01,
          8.45181942e-02, 2.50266370e-04, 2.39915699e-02, 2.84913629e-01,
          2.84913629e-01, 2.93488521e-02, 1.13489025e-03, 9.80884433e-02,
          1.65201589e-01, 8.51471536e-03, 3.33199714e-04, 5.16351610e-02,
          2.84913629e-01, 9.07191038e-02, 6.66104257e-03, 3.65360850e-03,
          2.76115805e-01, 1.62745774e-01, 1.34212777e-01, 9.01269168e-02,
          2.76115805e-01, 2.76115805e-01, 8.97055864e-02, 8.79630372e-02,
          1.51031941e-01, 1.40028119e-01, 6.52283356e-02, 2.76115805e-01,
          2.11514130e-01, 1.57899693e-01, 8.77779499e-02, 2.46253252e-01,
          2.76115805e-01, 1.53031319e-01, 2.84273140e-02, 4.56725210e-02,
          1.08320177e-01, 4.62984331e-02, 6.75720498e-02, 1.00516774e-01,
          3.07075270e-02, 2.90377773e-02, 4.26477846e-03, 5.66795177e-04,
          1.05426684e-01, 2.76115805e-01, 2.53586173e-01, 1.78307984e-02,
          9.71327722e-03, 2.76115805e-01, 2.76115805e-01, 4.15728129e-02,
          2.75438670e-02, 5.46968989e-02, 3.46281171e-01, 1.75884098e-01,
          2.89076753e-02, 1.24352537e-02, 3.67406100e-01, 3.67406100e-01,
          9.45403129e-02, 0., 0., 0., 0., 0., 0., 1.28377590e-03,
          5.95080724e-04, 3.61434359e-05, 0., 1.41329229e-01,
          3.67406100e-01, 3.52267385e-01, 1.78501324e-03, 8.58290179e-04,
          3.67406100e-01, 3.67406100e-01, 1.03001796e-01, 0.,
          3.40866798e-04, 1.45733613e-03, 7.51971966e-04, 0., 0.,
          3.39276716e-02, 3.18276584e-02, 4.49364446e-03, 1.94152102e-01,
          3.42104644e-01, 2.49141306e-01, 8.12251214e-03, 1.39279729e-02,
          3.42104644e-01, 3.42104644e-01, 1.33003265e-01, 7.89959170e-03,
          2.58963946e-02, 6.36003017e-02, 3.00910557e-03, 0.,
          5.86499320e-03, 1.60398304e-01, 7.26743788e-02, 4.44527064e-03,
          0., 4.23520431e-02, 2.51282632e-01, 3.12882513e-01,
          1.86842665e-01, 7.96326846e-02, 1.85355008e-01, 3.42104644e-01,
          3.42104644e-01, 1.37207523e-01, 5.24547650e-05, 1.86546138e-04,
          6.96136558e-05, 7.69460166e-04, 1.90846436e-03, 8.17871839e-03,
          1.62772220e-02, 1.36252968e-02, 7.04146223e-03, 0.,
          1.35240722e-02, 6.55927509e-02, 2.21952498e-02, 5.68628369e-04,
          3.42499092e-03, 3.75635992e-03, 5.56931086e-03, 1.18549215e-04,
          0., 1.79199517e-01, 3.47588301e-01, 3.47588301e-01, 0., 0.,
          3.47588301e-01, 3.47588301e-01, 7.89836198e-02, 0.,
          1.41960569e-03, 5.50639722e-03, 1.22224737e-03, 0., 0., 0., 0.,
          0., 3.29830032e-03, 1.48979321e-01, 3.47588301e-01,
          3.00781816e-01, 0., 7.44834403e-03, 3.35687459e-01,
          3.47588301e-01, 5.27704582e-02, 0., 1.05865382e-01,
          3.38742286e-01, 2.55579829e-01, 0., 0., 3.38742286e-01,
          3.38742286e-01, 7.59772807e-02, 0., 2.28976156e-03,
          1.89301539e-02, 6.97768107e-03, 0., 0., 6.85470402e-02,
          7.81992152e-02, 8.03520903e-03, 5.23532042e-03, 1.50205225e-01,
          3.38742286e-01, 3.04656148e-01, 0., 1.92744192e-02,
          3.38742286e-01, 3.38742286e-01, 9.31417495e-02, 1.38340273e-03,
          2.11785939e-02, 1.12942606e-01, 3.86148952e-02, 0.,
          9.56534129e-03, 1.92671999e-01, 1.92870170e-01, 3.13680395e-02,
          9.62850731e-03, 7.42004737e-02, 3.04484546e-01, 3.01928878e-01,
          1.06210664e-01, 6.84205815e-02, 3.04484546e-01, 3.04484546e-01,
          1.39014542e-01, 0., 0., 1.35737893e-04, 1.55877601e-03,
          4.75631654e-03, 8.07036553e-03, 1.96369886e-02, 1.99432559e-02,
          7.92028103e-03, 2.85175964e-02, 5.55968583e-02, 3.04484546e-01,
          3.04484546e-01, 1.07853152e-01, 2.01671552e-02, 2.31865674e-01,
          3.04484546e-01, 3.04484546e-01, 1.51866227e-01, 1.15128504e-02,
          1.81914270e-02, 1.05104014e-01, 9.11881626e-02, 1.52470665e-02,
          1.78156421e-02, 1.36090472e-01, 2.88676947e-01, 2.95187254e-03,
          7.13638030e-03, 8.16269312e-04, 0., 0., 5.88857278e-04,
          1.04621962e-04, 0., 3.41134728e-04, 1.03749625e-01,
          3.37260067e-01, 3.37260067e-01, 1.15848526e-01, 3.90890287e-04,
          1.94373310e-01, 2.06426263e-01, 1.50535613e-01, 3.06157507e-02,
          3.34902763e-01, 1.91480651e-01, 1.73999090e-02, 1.17037147e-02,
          8.55108202e-02, 1.68959439e-01, 3.83986682e-02, 2.49441434e-02,
          1.37772769e-01, 3.37260067e-01, 3.37260067e-01, 9.98410359e-02,
          1.49106784e-02, 6.30163252e-02, 3.37260067e-01, 2.75644660e-01,
          3.40412669e-02, 4.65753935e-02, 1.04629524e-01, 3.03631693e-01,
          3.03631693e-01, 1.73031136e-01, 6.07372902e-04, 3.03631693e-01,
          3.03631693e-01, 3.03631693e-01, 7.41095245e-02, 1.33829443e-02,
          6.77903742e-02, 1.23181514e-01, 3.76142226e-02, 1.48373001e-04,
          9.91465896e-02, 2.17119694e-01, 1.54058635e-01, 3.26445960e-02,
          2.46998832e-01, 3.03631693e-01, 1.19334035e-01, 2.50177812e-02,
          1.36807384e-02, 3.03631693e-01, 3.03631693e-01, 6.58381432e-02,
          1.88286863e-02, 1.48069737e-02, 5.31604365e-02, 3.10944095e-02,
          6.92551257e-03, 2.52511498e-04, 1.25061393e-01, 9.14625004e-02,
          3.24833989e-02, 6.50873175e-03 ]
      - [ 2.62398332e-01, 2.56606758e-01, 5.12869423e-03, 7.02983583e-04,
          1.00592189e-01, 2.62398332e-01, 5.72680086e-02, 2.43643578e-03,
          3.29168402e-02, 2.62398332e-01, 1.87963828e-01, 1.08817930e-03,
          2.06963774e-02, 2.07979232e-01, 2.62398332e-01, 2.88351998e-02,
          1.07443919e-02, 1.17476560e-01, 2.62398332e-01, 2.62398332e-01,
          9.48074535e-02, 2.33863108e-03, 1.70092270e-01, 2.62398332e-01,
          2.23141655e-01, 2.05258355e-02, 3.77686918e-02, 2.62398332e-01,
          8.77255425e-02, 1.79876145e-02, 8.53254348e-02, 2.62398332e-01,
          2.62398332e-01, 4.33667377e-02, 3.08456160e-02, 1.64399132e-01,
          2.72488564e-01, 1.53966263e-01, 5.90080442e-03, 8.24947059e-02,
          2.72488564e-01, 2.72488564e-01, 4.22027148e-02, 7.93149620e-02,
          2.65646070e-01, 7.76855275e-02, 2.56338622e-02, 3.01461481e-03,
          2.75230631e-02, 1.15211040e-01, 1.13904171e-01, 4.09138761e-02,
          5.47278412e-02, 8.11863542e-02, 2.11492449e-01, 3.20626497e-02,
          1.74397215e-01, 2.72488564e-01, 2.72488564e-01, 1.38672307e-01,
          9.66956317e-02, 2.72488564e-01, 2.72488564e-01, 1.14837773e-02,
          1.63945761e-02, 1.55826181e-01, 2.41700932e-01, 3.03506795e-02,
          4.74090595e-03, 1.50208026e-01, 2.72488564e-01, 1.94332331e-01,
          1.13799348e-01, 2.47529577e-02, 0., 0., 3.28924149e-01,
          1.74540699e-01, 3.04246008e-01, 9.48319659e-02, 1.39566183e-01,
          0., 0., 0., 0., 0., 0., 0., 0., 0., 0., 1.58024821e-02,
          3.35847020e-01, 1.19900547e-01, 0., 0., 4.85486805e-01,
          4.85486805e-01, 3.50829214e-01, 0., 0., 0., 0., 0., 0., 0., 0.,
          0., 1.75619572e-01, 2.62495279e-01, 2.01910049e-01,
          2.07851827e-02, 9.51978862e-02, 2.62495279e-01, 2.62495279e-01,
          9.16907117e-02, 5.63037023e-02, 1.00856140e-01, 4.92463149e-02,
          2.66496651e-02, 5.66015616e-02, 1.60407946e-01, 1.42894089e-01,
          6.86458722e-02, 2.62572765e-02, 6.11300096e-02, 1.14165269e-01,
          2.56103516e-01, 1.68209299e-01, 2.62495279e-01, 2.12339476e-01,
          1.91647977e-01, 2.62495279e-01, 2.62495279e-01, 2.62495279e-01,
          6.82262704e-02, 1.12963477e-02, 1.43762240e-02, 2.15245366e-01,
          1.38881952e-01, 1.64415967e-02, 3.32416072e-02, 1.44735426e-01,
          2.62495279e-01, 3.80157158e-02, 6.64221346e-02, 2.65636116e-01,
          2.65636116e-01, 1.14402890e-01, 3.24437432e-02, 1.96056560e-01,
          2.49036014e-01, 1.37447581e-01, 1.94270385e-03, 6.93281814e-02,
          2.65636116e-01, 1.81070730e-01, 1.15525434e-02, 1.49839977e-03,
          2.65636116e-01, 2.65636116e-01, 9.13048238e-02, 3.58547010e-02,
          1.28760517e-01, 2.65636116e-01, 1.07160822e-01, 5.82827814e-02,
          7.25709600e-03, 2.65636116e-01, 1.95788950e-01, 1.71759307e-01,
          3.47944489e-03, 1.49662152e-01, 2.65636116e-01, 2.31937580e-02,
          3.06684291e-03, 1.99573813e-03, 2.65636116e-01, 2.30535671e-01,
          1.11958375e-02, 0., 6.77846149e-02, 3.55784327e-01,
          7.13026151e-02, 0., 0., 4.02752370e-01, 4.02752370e-01,
          8.40939879e-02, 0., 0., 0., 0., 0., 0., 0., 0., 0., 0.,
          2.02501401e-01, 4.02752370e-01, 2.40116790e-02, 0., 0.,
          4.02752370e-01, 4.02752370e-01, 3.57049983e-03, 0., 0., 0., 0.,
          0., 0., 0., 0., 0., 4.78848182e-02, 4.42844220e-02,
          1.36521682e-01, 2.51374841e-01, 2.02748746e-01, 3.13615128e-02,
          1.07835688e-01, 2.51374841e-01, 2.51374841e-01, 6.66144341e-02,
          1.73544139e-02, 1.72456913e-02, 2.51374841e-01, 2.37848401e-01,
          1.08068828e-02, 1.83441453e-02, 1.72675624e-01, 2.51374841e-01,
          5.13885915e-02, 1.04666939e-02, 1.23634145e-01, 2.51374841e-01,
          1.13661878e-01, 1.18825468e-03, 3.59423161e-02, 2.51374841e-01,
          2.51374841e-01, 2.51374841e-01, 7.02165663e-02, 2.42259856e-02,
          2.51374841e-01, 2.43323177e-01, 1.14038721e-01, 1.40879666e-02,
          1.54081717e-01, 2.51374841e-01, 7.75918812e-02, 1.70252979e-01,
          2.48295456e-01, 1.90194666e-01, 1.44346967e-01, 5.63125797e-02,
          2.48295456e-01, 1.89255804e-01, 2.25528717e-01, 3.10476143e-02,
          1.74458623e-01, 2.48295456e-01, 1.12794964e-02, 1.16856750e-02,
          5.10788746e-02, 2.48295456e-01, 1.38573453e-01, 1.76870544e-02,
          2.48295456e-01, 2.48295456e-01, 9.48291346e-02, 1.02107033e-01,
          2.11860880e-01, 2.48295456e-01, 1.94128051e-01, 7.06411824e-02,
          1.30616054e-01, 1.13390729e-01, 2.33147025e-01, 1.08132966e-01,
          6.25031907e-03, 3.45958881e-02, 2.48295456e-01, 2.48295456e-01,
          5.17884791e-02, 1.18613159e-02, 2.14033294e-02, 2.72998154e-01,
          4.26541567e-01, 0., 0., 9.40883309e-02, 4.26541567e-01,
          4.11502689e-01, 0., 0., 0., 0., 0., 0., 0., 0., 0., 0.,
          4.56576757e-02, 1.76018611e-01, 2.12660491e-01, 0., 0.,
          3.09592873e-01, 4.26541567e-01, 1.50377572e-01, 0., 0., 0., 0.,
          0., 0., 0., 0., 0., 0. ]
      - [ 3.44312973e-02, 7.69037902e-02, 2.62556106e-01, 1.82925299e-01,
          1.78808376e-01, 5.61794750e-02, 2.82684356e-01, 2.82684356e-01,
          1.34571239e-01, 1.52254840e-02, 5.82152791e-03, 4.58188020e-02,
          2.82684356e-01, 2.82684356e-01, 1.75635016e-03, 2.09726505e-02,
          8.64314362e-02, 1.26397297e-01, 9.08685848e-02, 7.92541131e-02,
          2.82684356e-01, 2.82684356e-01, 2.71235555e-01, 0.,
          2.82684356e-01, 2.82684356e-01, 2.82684356e-01, 2.34721857e-03,
          1.53056011e-04, 2.67815404e-03, 2.90689780e-03, 5.85211301e-03,
          0., 1.75896119e-02, 1.86582394e-02, 1.30928187e-02,
          1.02010392e-01, 1.59491077e-02, 9.86056998e-02, 3.38298351e-01,
          3.38298351e-01, 2.04902142e-02, 2.51730401e-02, 3.23465347e-01,
          3.38298351e-01, 1.81659505e-01, 2.76699569e-02, 7.51315355e-02,
          3.38298351e-01, 3.38298351e-01, 7.52885044e-02, 1.36437595e-01,
          3.38298351e-01, 3.38298351e-01, 2.53311649e-04, 3.19595507e-04,
          2.06511188e-03, 1.09340781e-02, 2.18019560e-02, 1.65905291e-03,
          1.00795983e-03, 1.07048149e-03, 0., 6.47352077e-04,
          8.16744054e-04, 4.74826153e-03, 1.98713504e-02, 6.72925189e-02,
          6.43386040e-03, 9.70819220e-03, 7.20233610e-03, 0.,
          2.73178846e-01, 4.17431779e-02, 6.63262755e-02, 4.15971488e-01,
          4.15971488e-01, 1.68113306e-01, 4.15971488e-01, 4.15971488e-01,
          4.15971488e-01, 0., 0., 0., 0., 0., 0., 0., 0., 0.,
          1.06728007e-03, 1.34655426e-03, 7.62988441e-03, 2.57833060e-02,
          1.38142556e-01, 1.45233953e-02, 3.38495746e-02, 2.20644027e-02,
          0., 0., 0., 0., 0., 0., 0., 0., 0., 0., 7.79693127e-02,
          4.78388928e-02, 2.71531671e-01, 2.71531671e-01, 2.08529949e-01,
          0., 2.14544252e-01, 2.71531671e-01, 2.71531671e-01,
          1.39575759e-02, 3.69684049e-03, 2.20501684e-02, 4.61689197e-02,
          2.29282286e-02, 0., 3.77410874e-02, 8.69666189e-02,
          5.57898059e-02, 7.24045485e-02, 4.43119071e-02, 2.71531671e-01,
          2.71531671e-01, 1.67819560e-01, 0., 1.17493547e-01,
          2.71531671e-01, 2.71531671e-01, 3.14725824e-02, 1.47280861e-02,
          1.35959178e-01, 2.71531671e-01, 8.11012760e-02, 0.,
          9.07178000e-02, 2.71531671e-01, 2.50967562e-01, 0., 0., 0., 0.,
          0., 0., 4.10556467e-03, 1.05848452e-02, 3.30151850e-03, 0., 0.,
          0., 0., 0., 0., 0., 0., 0., 3.88537273e-02, 2.18497906e-02,
          2.81292319e-01, 4.84578460e-01, 2.06071034e-01, 0.,
          4.08648670e-01, 4.84578460e-01, 4.84578460e-01, 0., 0., 0., 0.,
          0., 0., 0., 0., 0., 0., 0., 0., 0., 0., 0., 0., 0., 0., 0., 0.,
          0., 0., 0., 0., 0., 0., 0., 0., 0., 0., 0., 0., 0., 0., 0., 0.,
          0., 0., 0., 0., 0., 0., 0., 0., 0., 3.45869809e-02,
          3.18933465e-02, 2.80296147e-01, 3.17253441e-01, 1.25492573e-01,
          0., 8.04469213e-02, 3.17253441e-01, 2.82419145e-01,
          2.93885842e-02, 2.62310524e-02, 3.17253441e-01, 3.17253441e-01,
          2.22771928e-01, 0., 2.19831362e-01, 3.17253441e-01,
          3.17253441e-01, 1.45294878e-03, 4.82249865e-03, 5.46813346e-02,
          9.68971997e-02, 3.97887379e-02, 0., 2.11192779e-02,
          4.76474054e-02, 2.92746723e-02, 2.12354050e-03, 6.53674593e-03,
          9.71780941e-02, 1.83096007e-01, 1.25848025e-01, 0.,
          9.23251361e-02, 1.40612125e-01, 7.71837011e-02, 2.04659533e-02,
          1.95605531e-02, 2.97151119e-01, 3.57071370e-01, 3.47199291e-01,
          0., 3.57071370e-01, 3.57071370e-01, 3.57071370e-01, 0., 0., 0.,
          0., 0., 0., 0., 0., 0., 2.11716746e-03, 6.12758705e-03,
          1.21610321e-01, 2.42170826e-01, 2.47187421e-01, 0.,
          2.25941390e-01, 2.69571304e-01, 1.35968730e-01, 0., 0., 0., 0.,
          0., 0., 0., 0., 0., 0., 0., 0., 0., 0., 0., 0., 0., 0., 0., 0.,
          0., 0., 0., 0., 0., 0., 0., 0., 0., 0., 0., 0., 0., 0., 0., 0.,
          0., 0., 0., 0., 0., 0., 0., 0., 0. ]
      - [ 2.36117542e-01, 2.71276176e-01, 1.12686090e-01, 4.19402122e-03,
          7.56823868e-02, 2.71276176e-01, 2.51410276e-01, 3.32401954e-02,
          1.53438896e-02, 2.71276176e-01, 2.71276176e-01, 3.42699587e-02,
          2.61623040e-02, 2.70688176e-01, 2.71276176e-01, 9.11693424e-02,
          1.89849902e-02, 6.43143654e-02, 7.48214200e-02, 2.71276176e-01,
          2.71276176e-01, 2.24696137e-02, 5.19955438e-03, 2.49944821e-01,
          2.71276176e-01, 1.29618928e-01, 1.96771882e-02, 5.48889562e-02,
          1.45598844e-01, 5.39298207e-02, 3.47019895e-03, 2.20336206e-02,
          1.85912624e-01, 1.78239882e-01, 4.13128585e-02, 2.07969621e-02,
          3.50262493e-01, 1.89707771e-01, 4.96271178e-02, 1.76206693e-01,
          3.50262493e-01, 3.50262493e-01, 2.10952163e-02, 6.49994686e-02,
          2.99325854e-01, 2.08380714e-01, 1.99694559e-02, 5.69917373e-02,
          3.50262493e-01, 3.50262493e-01, 1.37998000e-01, 2.35479642e-02,
          1.37164652e-01, 3.50262493e-01, 1.40662901e-02, 8.18391051e-03,
          4.00164485e-04, 1.23187387e-03, 3.71138006e-02, 6.50032088e-02,
          9.65697505e-03, 3.96674592e-03, 8.49698484e-03, 3.13956727e-04,
          0., 3.49256420e-03, 4.64972593e-02, 5.35122901e-02,
          6.93964167e-03, 2.96033570e-03, 1.54326833e-03, 1.33176032e-03,
          9.23959315e-02, 1.84790872e-04, 5.46021536e-02, 3.05671871e-01,
          3.05671871e-01, 5.79146966e-02, 3.54142301e-02, 2.57324636e-01,
          3.05671871e-01, 2.56832503e-02, 6.99356291e-03, 1.09647118e-01,
          3.05671871e-01, 8.34110528e-02, 3.25678736e-02, 2.36530770e-02,
          3.05671871e-01, 3.05671871e-01, 1.92979444e-03, 4.35849448e-04,
          2.32900437e-02, 1.64450884e-01, 5.15948124e-02, 1.11801075e-02,
          5.20742824e-03, 4.43574451e-02, 3.12084872e-02, 3.70299406e-02,
          4.21647765e-02, 2.50021219e-01, 3.05671871e-01, 3.98210734e-02,
          1.85334645e-02, 5.50814383e-02, 3.05671871e-01, 2.04555854e-01,
          1.21505775e-01, 2.66715974e-01, 2.66715974e-01, 2.38308802e-01,
          9.51132402e-02, 1.60068557e-01, 2.66715974e-01, 2.66715974e-01,
          1.44672394e-01, 1.15526192e-01, 7.05232173e-02, 6.11137040e-02,
          5.70924394e-02, 1.15800306e-01, 1.23743631e-01, 1.80378750e-01,
          1.01822369e-01, 1.25566393e-01, 8.58039930e-02, 5.88388145e-02,
          2.66715974e-01, 2.66715974e-01, 1.33202389e-01, 1.00039005e-01,
          1.90686867e-01, 2.66715974e-01, 2.44221151e-01, 1.95483163e-01,
          6.50200322e-02, 2.48274468e-02, 7.26272538e-02, 1.66741744e-01,
          1.42757252e-01, 6.30535558e-02, 9.69475433e-02, 1.22645959e-01,
          2.92498656e-02, 3.01109860e-03, 0., 0., 4.22687121e-02,
          2.23453473e-02, 3.20808329e-02, 2.29080226e-02, 4.41591702e-02,
          9.72357467e-02, 3.35067958e-02, 8.58555941e-05, 1.25235383e-04,
          7.42057478e-03, 1.57962162e-02, 5.05736854e-04, 0.,
          1.99163184e-02, 3.73646706e-01, 2.30831221e-01, 6.36873941e-04,
          0., 2.21970826e-01, 3.43770742e-01, 3.92580479e-02,
          2.15585791e-02, 1.37388289e-01, 3.73646706e-01, 3.73646706e-01,
          4.28909017e-03, 4.47269238e-04, 3.73646706e-01, 3.73646706e-01,
          2.05849241e-02, 2.93570827e-03, 1.95470706e-01, 1.71353623e-01,
          6.64840564e-02, 1.25552400e-03, 4.75621829e-03, 3.36308628e-02,
          6.61137477e-02, 2.16073403e-03, 7.16736613e-05, 3.04155946e-02,
          2.96563059e-01, 1.77652687e-01, 1.57197118e-01, 1.82654306e-01,
          1.37508571e-01, 2.66895831e-01, 6.26059771e-02, 1.55160695e-01,
          9.30290073e-02, 2.96563059e-01, 2.46603668e-01, 1.48898968e-03,
          2.97567109e-03, 2.96563059e-01, 2.96563059e-01, 1.51204905e-02,
          2.30056830e-04, 9.10770446e-02, 2.96563059e-01, 2.19215646e-01,
          2.33007036e-02, 1.01178270e-02, 2.96563059e-01, 2.96563059e-01,
          3.10898777e-02, 1.61241721e-02, 7.38273636e-02, 1.13142312e-01,
          4.10402864e-02, 2.36331582e-01, 2.66636133e-01, 9.88009647e-02,
          8.98436159e-02, 6.22236319e-02, 2.66636133e-01, 2.43528172e-01,
          2.66636133e-01, 1.82431206e-01, 2.76712105e-02, 1.09526142e-01,
          2.46196494e-01, 2.66636133e-01, 2.16524638e-02, 1.30697757e-01,
          1.37576431e-01, 1.12495288e-01, 3.29258107e-02, 9.50958207e-02,
          2.66636133e-01, 1.33114904e-01, 1.16038300e-01, 1.29197026e-02,
          1.59306645e-01, 1.04748532e-01, 2.66636133e-01, 1.19571924e-01,
          2.56590899e-02, 1.21484078e-01, 2.66636133e-01, 2.66636133e-01,
          1.55056277e-02, 7.42471665e-02, 9.02318805e-02, 3.15277189e-01,
          2.64227569e-01, 4.57594811e-04, 0., 3.15277189e-01,
          3.15277189e-01, 2.09283456e-02, 3.46091599e-03, 1.00287259e-01,
          3.15277189e-01, 2.38392472e-01, 2.32928270e-03, 9.20722014e-05,
          3.15277189e-01, 3.15277189e-01, 1.70055144e-02, 2.86783208e-03,
          9.21555981e-02, 2.31643289e-01, 9.80523005e-02, 4.73373948e-05,
          0., 2.40143418e-01, 3.15277189e-01, 1.22841941e-02,
          1.17973564e-03, 2.81333886e-02, 5.21480441e-02, 2.02143751e-02,
          1.20973353e-04, 0., 9.93809402e-02, 1.41934633e-01,
          4.29119775e-03, 6.33394986e-04, 6.85374998e-03, 3.88127446e-01,
          3.46133858e-01, 3.75189469e-03, 2.80925119e-03, 3.88127446e-01,
          3.88127446e-01, 2.91605517e-02, 1.11897883e-03, 1.11007482e-01,
          2.94338614e-01, 1.24122582e-01, 9.39037927e-05, 3.33564216e-03,
          3.88127446e-01, 3.88127446e-01, 1.47692645e-02, 0.,
          3.51059139e-02, 7.20144389e-03, 4.47246060e-03, 8.69872674e-05,
          0., 5.01729771e-02, 6.16944544e-02, 9.29209113e-04,
          2.07218312e-04, 1.60330720e-03, 0., 0., 0., 0., 7.44266144e-04,
          4.51932719e-04, 0., 0., 0. ]
      - [ 4.08441061e-03, 1.54107157e-02, 3.05889755e-01, 3.17763627e-01,
          2.18581602e-01, 1.32658863e-02, 9.03930664e-02, 3.17763627e-01,
          3.17763627e-01, 3.43638211e-02, 2.57157232e-03, 3.89038809e-02,
          1.48345992e-01, 2.94076085e-01, 8.28726310e-03, 4.28216495e-02,
          1.89870328e-01, 1.25038207e-01, 0., 1.44515894e-02,
          2.22570732e-01, 3.17763627e-01, 1.51752740e-01, 2.39142962e-02,
          8.49649534e-02, 3.17763627e-01, 1.66630447e-01, 0.,
          3.09814001e-03, 5.61550707e-02, 1.20587014e-01, 8.32233280e-02,
          1.63624138e-02, 6.93317428e-02, 1.83925733e-01, 7.32615516e-02,
          1.76636204e-01, 3.54098924e-03, 3.31669906e-03, 2.69907534e-01,
          4.40891713e-01, 1.29997469e-02, 4.58609825e-03, 1.49445757e-02,
          3.49600524e-01, 2.20327318e-01, 5.46513649e-04, 4.33230685e-04,
          3.62908840e-01, 4.40891713e-01, 1.01081003e-02, 2.29700305e-03,
          7.33260736e-02, 4.40891713e-01, 0., 0., 0., 0., 0., 0., 0., 0.,
          0., 0., 0., 0., 0., 0., 0., 0., 0., 0., 1.65307060e-01, 0.,
          1.14861410e-02, 3.18590194e-01, 3.93571377e-01, 1.09714654e-03,
          7.36013521e-04, 3.39022614e-02, 3.93571377e-01, 2.78667986e-01,
          0., 2.86786687e-02, 3.93571377e-01, 3.93571377e-01,
          4.13559435e-04, 4.86173638e-04, 1.11061461e-01, 3.93571377e-01,
          0., 0., 0., 0., 1.43691304e-03, 0., 0., 0., 0., 0., 0.,
          7.43199489e-05, 6.99326815e-03, 2.45462842e-02, 0., 0., 0., 0.,
          0., 3.25362124e-02, 3.48389655e-01, 3.48389655e-01,
          3.48389655e-01, 9.09075215e-02, 2.49238357e-01, 3.48389655e-01,
          2.19767377e-01, 0., 9.57407616e-03, 1.44060329e-01,
          3.00615489e-01, 3.46964151e-01, 6.21998832e-02, 2.19916210e-01,
          2.99771875e-01, 1.32603139e-01, 0., 0., 0., 0., 0., 0., 0., 0.,
          0., 0., 0., 0., 0., 0., 0., 0., 0., 0., 0., 0., 0., 0., 0., 0.,
          0., 0., 0., 0., 0., 0., 0., 0., 0., 0., 0., 0., 0., 0., 0., 0.,
          0., 0., 0., 0., 0., 0., 0., 0., 0., 0., 0., 0., 0., 0., 0., 0.,
          0., 0., 0., 0., 0., 0., 0., 0., 0., 0., 0., 0., 0., 0., 0., 0.,
          0., 0., 0., 0., 0., 0., 0., 0., 0., 0., 0., 0., 0., 0., 0., 0.,
          0., 0., 0., 0., 0., 0., 0., 0., 0., 0., 0., 0., 0., 0., 0., 0.,
          0., 0., 0., 0., 0., 0., 0., 0., 0., 0., 0., 0., 0., 0., 0., 0.,
          0., 0., 0., 0., 0., 0., 0., 0., 0., 0., 0., 0., 0., 0., 0., 0.,
          0., 0., 0., 0., 0., 0., 0., 0., 0., 0., 0., 0., 0., 0., 0., 0.,
          0., 0., 0., 0., 0., 0., 0., 0., 0., 0., 0., 0., 0., 0., 0., 0.,
          0., 0., 0., 0., 0., 0., 0., 0., 0., 0., 0., 0., 0., 0., 0., 0.,
          0., 0., 0., 0., 0., 0., 0., 0., 0., 0., 0., 0., 0., 0. ]
      - [ 2.59007543e-01, 1.63452357e-01, 6.55303197e-03, 2.13793246e-03,
          1.81635812e-01, 2.59007543e-01, 7.72121921e-03, 3.48260393e-03,
          9.71448049e-02, 2.59007543e-01, 1.34770006e-01, 1.12471974e-03,
          2.86793895e-03, 2.59007543e-01, 2.59007543e-01, 9.39052366e-03,
          3.84825398e-03, 1.50620669e-01, 2.59007543e-01, 1.68937802e-01,
          6.77066147e-02, 1.60410956e-01, 2.59007543e-01, 2.59007543e-01,
          3.10443863e-02, 1.83188200e-01, 2.53702104e-01, 2.11916894e-01,
          6.35222420e-02, 1.26341381e-03, 1.25039779e-02, 2.59007543e-01,
          2.59007543e-01, 5.12064900e-03, 2.37327088e-02, 9.43522826e-02,
          3.11027408e-01, 1.37821093e-01, 2.06959623e-04, 1.97863840e-02,
          3.11027408e-01, 3.11027408e-01, 1.10535547e-02, 5.23231644e-03,
          2.84628898e-01, 3.11027408e-01, 1.18969664e-01, 1.12264231e-03,
          4.22942899e-02, 3.11027408e-01, 3.11027408e-01, 3.84761579e-03,
          1.68784405e-04, 3.11027408e-01, 1.25717327e-01, 2.92850081e-02,
          1.41603959e-04, 5.64195681e-03, 2.77604222e-01, 1.74257979e-01,
          4.78861062e-03, 3.54081835e-03, 4.76658642e-02, 6.94759116e-02,
          1.37277752e-01, 5.41860834e-02, 9.41936206e-03, 1.85776159e-01,
          1.15400650e-01, 4.12156396e-02, 5.20845875e-03, 2.30897721e-02,
          2.69628972e-01, 1.30896211e-01, 5.22193033e-03, 1.72580332e-02,
          2.69628972e-01, 2.69628972e-01, 1.40248165e-02, 8.93952139e-03,
          1.79924771e-01, 2.69628972e-01, 1.79106981e-01, 1.88127831e-02,
          5.63973142e-03, 2.69628972e-01, 2.69628972e-01, 7.06251487e-02,
          3.68849337e-02, 1.65499240e-01, 1.77038357e-01, 2.69628972e-01,
          1.02451205e-01, 3.94102279e-03, 7.64843896e-02, 2.69628972e-01,
          1.61854327e-01, 2.56440789e-02, 2.27550473e-02, 1.89435229e-01,
          2.69628972e-01, 4.21473831e-02, 1.55864132e-03, 2.49013919e-02,
          2.69628972e-01, 1.89703718e-01, 5.31572737e-02, 4.26791869e-02,
          8.29026178e-02, 2.30190102e-02, 8.63086209e-02, 2.86876053e-01,
          2.07238704e-01, 8.49110931e-02, 1.84035823e-02, 2.86876053e-01,
          2.86876053e-01, 5.55183403e-02, 2.49265437e-03, 2.26755310e-02,
          2.54977554e-01, 1.28621981e-01, 1.74358524e-02, 6.36431761e-03,
          1.83382705e-01, 2.86876053e-01, 2.35500950e-02, 8.22739443e-04,
          3.16723920e-02, 2.86876053e-01, 1.62611723e-01, 9.21699044e-04,
          3.84537666e-03, 1.18650541e-01, 2.30046406e-01, 5.43355010e-02,
          4.46355110e-03, 4.71700020e-02, 2.86876053e-01, 2.86876053e-01,
          7.61125557e-05, 8.99866130e-03, 2.32323632e-01, 2.86876053e-01,
          2.67998427e-02, 1.21381704e-03, 8.19502771e-03, 8.36047605e-02,
          4.30797637e-02, 1.54430090e-04, 2.07804563e-03, 9.23913047e-02,
          2.18355387e-01, 2.46768724e-02, 1.99406564e-01, 1.91087186e-01,
          6.09117886e-03, 2.49150046e-03, 4.67047766e-02, 1.37370914e-01,
          4.76118512e-02, 3.71514447e-02, 8.83076638e-02, 3.68696940e-03,
          5.45438118e-02, 2.98612118e-01, 2.98612118e-01, 0.,
          3.15835467e-03, 2.98612118e-01, 2.98612118e-01, 9.70211774e-02,
          1.33577228e-01, 2.98612118e-01, 2.98612118e-01, 2.14012221e-01,
          1.05386982e-02, 1.79489434e-01, 2.98612118e-01, 2.98612118e-01,
          8.53646994e-02, 2.72046387e-01, 2.72046387e-01, 2.68645328e-03,
          2.41603446e-03, 2.69054562e-01, 2.72046387e-01, 9.20588300e-02,
          6.27866667e-03, 6.83093295e-02, 2.08521217e-01, 8.93144533e-02,
          1.35332078e-03, 2.73817242e-03, 2.72046387e-01, 2.51286447e-01,
          5.40290214e-02, 7.34267989e-03, 2.72204094e-02, 2.24993676e-01,
          2.72046387e-01, 2.08929926e-01, 4.04341891e-02, 3.34847793e-02,
          2.72046387e-01, 2.72046387e-01, 2.04132318e-01, 2.34936411e-03,
          5.87595999e-02, 1.48940742e-01, 4.19536531e-02, 1.05963880e-03,
          1.90237090e-02, 2.39865333e-01, 2.07813606e-01, 2.88582463e-02,
          4.54869308e-03, 1.27457257e-03, 2.49663163e-02, 3.34306061e-01,
          2.13643938e-01, 0., 5.11654187e-03, 2.97193248e-02,
          5.82445562e-02, 6.21584989e-02, 1.02296304e-02, 1.24364987e-01,
          4.75859165e-01, 4.75859165e-01, 0., 1.29530840e-02,
          3.65933836e-01, 4.75859165e-01, 0., 0., 0., 0., 0., 0., 0., 0.,
          0., 0., 0., 4.92519117e-04, 3.34324501e-03, 6.90128142e-03, 0.,
          0., 0., 0., 5.77366948e-02, 2.26570037e-03, 5.17876223e-02,
          3.22033584e-01, 3.22033584e-01, 0., 6.85161795e-04,
          1.90577745e-01, 3.22033584e-01, 1.03557527e-01, 4.97647300e-02,
          2.71867305e-01, 3.22033584e-01, 3.22033584e-01, 0.,
          6.89541698e-02, 3.22033584e-01, 3.22033584e-01, 1.04770879e-03,
          2.33926767e-04, 3.80985742e-03, 3.73404212e-02, 2.32028794e-02,
          0., 0., 2.63929553e-03, 6.09464757e-03, 6.71440829e-03,
          6.37112185e-03, 3.80429365e-02, 3.22033584e-01, 1.21791959e-01,
          0., 3.30295484e-03, 6.52054772e-02, 1.01526365e-01,
          3.90641764e-02, 8.84680673e-02, 3.01603377e-01, 3.01603377e-01,
          1.98335230e-01, 3.04734847e-03, 2.81924456e-01, 3.01603377e-01,
          3.01603377e-01, 5.40729007e-03, 2.55307816e-02, 1.42306700e-01,
          1.93918586e-01, 6.01386651e-02, 3.45366192e-03, 2.14690983e-01,
          3.01603377e-01, 8.57483000e-02, 8.72901920e-03, 1.41453957e-02,
          7.85423070e-02, 3.01603377e-01, 1.77838176e-01, 4.45381738e-03,
          1.06029481e-01, 2.18742564e-01, 1.28276229e-01, 3.25268297e-03,
          5.39421104e-03, 3.57780382e-02, 1.72574341e-01, 1.03485927e-01,
          5.04765986e-03, 1.37204066e-01, 1.78087801e-01, 3.73475775e-02 ]
      - [ 3.02018940e-01, 3.02018940e-01, 4.67880107e-02, 5.22189867e-03,
          6.69489801e-02, 3.02018940e-01, 1.64549693e-01, 1.48191722e-02,
          3.05462182e-02, 3.02018940e-01, 3.02018940e-01, 1.20263337e-03,
          3.58761055e-03, 2.54635751e-01, 3.02018940e-01, 1.00990824e-01,
          1.16077904e-02, 8.11747015e-02, 1.07287832e-01, 3.02018940e-01,
          1.18866198e-01, 5.40196372e-04, 2.66641043e-02, 3.02018940e-01,
          2.80427694e-01, 5.43338358e-02, 1.62701029e-02, 3.72298062e-02,
          4.49805669e-02, 3.37584643e-04, 2.82960042e-04, 3.44674326e-02,
          1.91252753e-01, 3.38778235e-02, 1.45879772e-03, 4.61839186e-03,
          3.50808710e-01, 1.64184690e-01, 1.63638417e-03, 6.91389218e-02,
          3.50808710e-01, 3.50808710e-01, 4.06477191e-02, 2.09260657e-02,
          2.87043303e-01, 3.33280653e-01, 2.24100873e-02, 1.56046096e-02,
          3.50808710e-01, 3.50808710e-01, 1.24361806e-01, 3.02844355e-03,
          9.43783224e-02, 3.50808710e-01, 3.56386392e-03, 4.37808968e-03,
          0., 1.73918175e-04, 4.31613773e-02, 4.66600694e-02,
          2.33340217e-03, 2.10050766e-05, 1.30741613e-03, 4.67610662e-05,
          0., 2.59346532e-04, 2.00978834e-02, 3.43776457e-02,
          1.31109764e-03, 3.47136775e-05, 1.05850195e-04, 5.62982168e-04,
          1.33207694e-01, 1.23279315e-04, 1.75362770e-02, 3.07034135e-01,
          3.07034135e-01, 9.72256344e-03, 4.39209584e-03, 1.49451539e-01,
          3.07034135e-01, 8.42154920e-02, 6.26200484e-03, 1.08152904e-01,
          3.07034135e-01, 2.27268279e-01, 2.71980208e-03, 3.34225781e-02,
          3.07034135e-01, 3.07034135e-01, 2.42890907e-03, 1.36872914e-04,
          4.24341811e-03, 9.38984007e-02, 6.06935695e-02, 3.75398289e-04,
          2.64692877e-04, 1.20368218e-02, 1.88886020e-02, 1.67787280e-02,
          5.15334979e-02, 2.85696417e-01, 3.07034135e-01, 6.26605973e-02,
          2.67258775e-03, 1.02832556e-01, 3.07034135e-01, 1.36282310e-01,
          3.57894152e-02, 3.37187827e-01, 3.37187827e-01, 0.,
          8.05992633e-02, 3.37187827e-01, 3.37187827e-01, 3.37187827e-01,
          2.37851385e-02, 2.90451659e-04, 7.30735017e-04, 0., 0.,
          1.98504468e-03, 3.09388023e-02, 1.26168579e-02, 1.54314528e-03,
          5.56486077e-04, 5.52132074e-03, 1.77605182e-01, 3.37187827e-01,
          3.00923921e-02, 9.52690244e-02, 1.88577130e-01, 3.37187827e-01,
          3.37187827e-01, 2.17958000e-02, 0., 0., 0., 0., 0., 0.,
          2.56370101e-03, 8.54567101e-04, 0., 0., 0., 0., 0., 0., 0., 0.,
          0., 0., 0., 0., 0., 0., 0., 0., 0., 0., 0., 0., 0., 0., 0., 0.,
          0., 0., 0., 0., 0., 0., 0., 0., 0., 0., 0., 0., 0., 0.,
          6.03631634e-05, 2.58865970e-04, 2.58488348e-04, 0., 0., 0., 0.,
          0., 3.47933061e-02, 3.60313237e-01, 3.60313237e-01,
          1.56551719e-01, 0., 7.08741993e-02, 3.55700046e-01,
          1.79162458e-01, 1.03980387e-02, 1.13231810e-02, 5.56621775e-02,
          6.37710793e-03, 2.95179663e-04, 0., 3.94024700e-03,
          2.73456192e-03, 0., 0., 1.43900245e-01, 3.60313237e-01,
          3.60313237e-01, 3.43566644e-03, 0., 3.60313237e-01,
          3.60313237e-01, 6.29678816e-02, 0., 6.63327612e-03,
          4.34972867e-02, 2.46642739e-01, 1.58630252e-01, 1.36666503e-02,
          1.66144799e-02, 2.48466164e-01, 3.09377968e-01, 8.28164816e-02,
          4.20807721e-03, 1.08236054e-04, 5.82454784e-04, 3.24851088e-03,
          1.02910657e-04, 0., 4.43033059e-04, 1.62647925e-02,
          1.93681940e-02, 1.00919500e-01, 1.70259234e-02, 1.86539993e-01,
          3.09377968e-01, 2.00108454e-01, 1.04324904e-03, 7.81970695e-02,
          3.09377968e-01, 3.09377968e-01, 2.55860895e-01, 5.84474648e-04,
          1.36928158e-02, 2.80734330e-01, 3.09377968e-01, 1.43439528e-02,
          3.75124277e-03, 1.69845283e-01, 3.09377968e-01, 8.65118869e-04,
          0., 0., 0., 0., 0., 0., 4.94843553e-05, 1.45017123e-03,
          3.67081054e-02, 2.18455475e-02, 0., 1.14461058e-04,
          4.61902557e-04, 3.75670986e-03, 5.79765241e-04, 0.,
          8.79589561e-03, 3.56214911e-01, 3.44671421e-02, 2.13428889e-03,
          8.66625458e-02, 3.56214911e-01, 8.20668861e-02, 5.84025867e-03,
          7.02543855e-02, 3.56214911e-01, 3.56214911e-01, 2.92115897e-01,
          4.26629651e-03, 6.65913476e-03, 3.56214911e-01, 3.56214911e-01,
          1.96420047e-02, 1.05008902e-02, 3.56214911e-01, 9.52665135e-02,
          1.71041980e-01, 6.99581020e-03, 3.99781624e-03, 3.26860440e-03,
          8.59351754e-02, 2.36781016e-02, 1.50743101e-04, 6.47992827e-03,
          1.68769315e-01, 3.08653146e-01, 8.79129469e-02, 1.29080703e-02,
          8.33442621e-03, 3.08653146e-01, 3.08653146e-01, 1.50314635e-02,
          2.05005193e-03, 3.08653146e-01, 3.08653146e-01, 6.42667292e-03,
          9.46764648e-03, 1.88662037e-01, 3.08653146e-01, 7.81895891e-02,
          2.81265681e-03, 8.61201882e-02, 2.48462826e-01, 3.08653146e-01,
          1.14548011e-02, 1.66319236e-02, 5.03309742e-02, 3.08653146e-01,
          1.94026560e-01, 4.49728454e-03, 1.02892090e-02 ]
      - [ 2.87913214e-02, 6.55298308e-02, 5.58092445e-02, 0.,
          2.98284780e-04, 2.74953302e-02, 1.86467022e-01, 4.88092043e-02,
          3.58637515e-03, 2.42855117e-01, 3.16070169e-01, 3.77817564e-02,
          0., 3.34448367e-02, 2.89041758e-01, 9.40304101e-02,
          3.04749748e-03, 1.80729181e-02, 2.75668114e-01, 3.16070169e-01,
          7.28969947e-02, 5.27710980e-03, 2.58643143e-02, 3.16070169e-01,
          2.23112449e-01, 8.23513120e-02, 1.91028770e-02, 3.16070169e-01,
          3.16070169e-01, 6.75706044e-02, 0., 7.26981685e-02,
          3.16070169e-01, 2.15339988e-01, 5.59673458e-03, 4.30159941e-02,
          2.85024136e-01, 2.85024136e-01, 6.26753494e-02, 2.04342417e-02,
          6.08203970e-02, 2.85024136e-01, 2.33062685e-01, 1.51005583e-02,
          2.14951448e-02, 1.33225128e-01, 2.48847857e-01, 2.12830096e-01,
          2.85024136e-01, 4.56399731e-02, 2.85024136e-01, 1.81853414e-01,
          2.85024136e-01, 1.50764510e-01, 1.81361198e-01, 2.85024136e-01,
          2.92705316e-02, 1.75501453e-04, 5.80351911e-02, 2.85024136e-01,
          1.63138896e-01, 6.89396961e-03, 1.61374230e-02, 1.43559249e-02,
          3.60959433e-02, 6.45391345e-02, 1.31338522e-01, 1.18798437e-02,
          9.72598717e-02, 3.99614386e-02, 5.49795851e-02, 1.22714322e-02,
          1.15755647e-02, 2.19570287e-02, 2.47926801e-01, 2.88241714e-01,
          1.37605704e-02, 3.27156484e-02, 6.95643425e-02, 2.88241714e-01,
          1.97640926e-01, 0., 7.42051657e-03, 7.98805952e-02,
          1.45798951e-01, 1.42725301e-03, 1.65921461e-04, 5.39051443e-02,
          2.88241714e-01, 7.43103921e-02, 6.80765195e-04, 3.30431163e-02,
          2.88241714e-01, 2.88241714e-01, 4.37297579e-03, 1.23388437e-03,
          9.10485089e-02, 2.88241714e-01, 1.14136368e-01, 4.12354134e-02,
          3.20771635e-02, 2.66742617e-01, 2.88241714e-01, 6.34368360e-02,
          2.24413583e-03, 1.39703870e-01, 2.88241714e-01, 2.63112813e-01,
          3.21501970e-01, 3.21501970e-01, 9.52921286e-02, 7.05736130e-02,
          9.91143882e-02, 3.21501970e-01, 2.87278205e-01, 1.37458310e-01,
          4.87885177e-02, 2.53006160e-01, 3.21501970e-01, 2.57271212e-02,
          0., 6.20218329e-02, 3.21501970e-01, 1.60856426e-01,
          6.28278777e-03, 1.55632943e-02, 1.78558111e-01, 2.21824661e-01,
          4.83702719e-02, 1.05750129e-01, 1.19458236e-01, 3.21501970e-01,
          1.27855659e-01, 6.65565655e-02, 4.46942598e-02, 2.50278283e-02,
          3.66127938e-02, 1.17714074e-03, 0., 1.46660227e-02,
          1.37433559e-01, 3.88302095e-02, 2.16678809e-03, 1.60562311e-04,
          3.88251513e-01, 5.28472066e-01, 7.76999816e-02, 0.,
          1.56436086e-01, 5.28472066e-01, 4.70329255e-01, 1.45569267e-02,
          5.37679270e-02, 0., 2.10732333e-02, 9.27578658e-02,
          1.32559776e-01, 3.69688077e-03, 4.04070280e-02, 1.64142903e-02,
          1.47678787e-02, 2.68027885e-03, 0., 1.20796973e-03,
          3.24472385e-05, 0., 1.13481097e-02, 4.09544185e-02,
          5.15209604e-03, 4.93564701e-04, 0., 0., 0., 0., 0., 0., 0., 0.,
          0., 0., 2.68930616e-03, 3.21991891e-02, 2.74089217e-01,
          3.25986266e-01, 1.88188758e-02, 7.36252841e-05, 6.31464347e-02,
          2.36175895e-01, 9.70954299e-02, 1.62082583e-01, 4.12508100e-02,
          3.25986266e-01, 3.25986266e-01, 3.25986266e-01, 1.48502225e-02,
          1.36162907e-01, 3.25986266e-01, 3.25986266e-01, 6.63859479e-04,
          8.46399169e-04, 1.67435594e-02, 6.07534163e-02, 1.12568522e-02,
          2.88098927e-05, 1.91644358e-04, 8.97632632e-03, 6.07347488e-03,
          4.00763117e-02, 1.81270309e-03, 3.67833264e-02, 2.20685244e-01,
          3.05390269e-01, 7.47625995e-03, 1.32548390e-02, 6.14772774e-02,
          1.16339356e-01, 2.52821058e-01, 1.07031450e-01, 1.01379186e-01,
          5.30954421e-01, 5.30954421e-01, 5.30954421e-01, 1.02955163e-01,
          7.51731396e-02, 1.59722999e-01, 1.44460087e-03, 3.61928047e-04,
          0., 0., 9.97801963e-03, 1.45525217e-01, 1.63138248e-02, 0., 0.,
          0., 0., 0., 0., 0., 0., 0., 0., 0., 0., 0., 0., 0., 0., 0., 0.,
          0., 0., 0., 0., 0., 0., 0., 0., 0., 0., 0., 0., 0., 0., 0., 0.,
          0., 0., 0., 0., 0., 0., 0., 0., 0., 0., 0., 0., 0., 0., 0., 0.,
          0., 0., 0., 0., 0., 0., 0., 0., 0., 0., 0., 0., 0., 0., 0., 0.,
          0., 0., 0., 0., 0., 0., 0., 0., 0., 0., 0., 0., 0., 0., 0., 0.,
          0., 0., 0., 0., 0., 0., 0., 0., 0., 0. ]
      - [ 5.07577807e-02, 2.88441211e-01, 3.82558525e-01, 0., 0.,
          3.29008065e-02, 3.82558525e-01, 3.44417274e-01, 4.36247662e-02,
          0., 0., 0., 0., 0., 0., 1.72085781e-02, 5.73619315e-03, 0., 0.,
          3.41528088e-01, 3.82558525e-01, 0., 0., 7.86566585e-02,
          3.82558525e-01, 2.83025563e-01, 0., 0., 0., 0., 0., 0., 0.,
          1.08063985e-02, 3.60213267e-03, 0., 2.02617128e-04, 0., 0., 0.,
          0., 0., 0., 0., 2.02617128e-04, 1.58925168e-03, 0., 0., 0., 0.,
          0., 0., 0., 1.58925168e-03, 1.41541526e-01, 3.09528083e-01,
          7.81717300e-02, 4.10377188e-03, 8.39740410e-03, 1.00010790e-01,
          4.05617617e-02, 5.44375600e-03, 4.14382294e-02, 3.49719942e-01,
          3.49719942e-01, 2.70613015e-01, 3.49719942e-01, 1.35972843e-01,
          3.49719942e-01, 1.88474402e-01, 3.49719942e-01, 3.49719942e-01,
          1.35004532e-03, 0., 0., 0., 0., 0., 0., 0., 1.35004532e-03,
          2.13077201e-05, 0., 0., 0., 0., 0., 0., 0., 2.13077201e-05,
          3.94244343e-01, 3.30514103e-01, 2.31660649e-01, 3.94244343e-01,
          1.30666599e-01, 2.69947976e-01, 1.72304317e-01, 3.94244343e-01,
          3.94244343e-01, 6.65137637e-03, 1.99543242e-03, 2.31453106e-02,
          4.99515980e-02, 6.65740168e-04, 0., 2.97461450e-02,
          2.73724854e-01, 1.13635659e-01, 0., 2.83201665e-01,
          3.39587629e-01, 0., 0., 6.57885298e-02, 3.39587629e-01,
          2.47640327e-01, 0., 1.13970824e-02, 4.25497890e-02,
          5.80128748e-03, 8.74452016e-05, 4.77079564e-04, 7.16152973e-03,
          4.20252793e-03, 5.62182919e-04, 2.98166327e-04, 2.74546118e-03,
          2.68106937e-01, 3.39587629e-01, 0., 0., 9.18231308e-02,
          3.39587629e-01, 2.50820398e-01, 0., 2.03472197e-01,
          3.39587629e-01, 5.75374179e-02, 4.72204032e-04, 3.31943738e-03,
          2.68185467e-01, 1.10524178e-01, 2.49347719e-03, 2.88227457e-03,
          8.32142010e-02, 2.59632587e-01, 4.80955914e-02, 1.64369668e-03,
          3.50928260e-03, 1.44873813e-01, 6.60614222e-02, 4.33916319e-03,
          7.42417900e-03, 2.15868428e-01, 2.70627469e-01, 1.64189503e-01,
          2.43740648e-01, 4.38942686e-02, 2.70627469e-01, 1.71593934e-01,
          1.92045182e-01, 1.80681303e-01, 2.13130027e-01, 2.70627469e-01,
          7.14020729e-02, 1.37573306e-03, 6.43835776e-03, 2.70627469e-01,
          2.01197818e-01, 9.60785616e-03, 3.07782530e-03, 1.24350175e-01,
          2.70627469e-01, 1.53170153e-01, 1.79427102e-01, 1.44919157e-02,
          2.70627469e-01, 2.21922174e-01, 9.55044627e-02, 3.25528719e-02,
          1.02506660e-01, 1.06369235e-01, 2.02084124e-01, 2.92452544e-01,
          3.51238027e-02, 1.34635091e-01, 1.12858318e-01, 2.92452544e-01,
          2.55564243e-01, 1.71849900e-03, 2.88101984e-03, 5.75082377e-02,
          8.36431161e-02, 3.83449456e-04, 0., 4.05060276e-02,
          2.37942532e-01, 6.10091314e-02, 1.81743316e-02, 6.16934970e-02,
          2.92452544e-01, 2.92452544e-01, 9.29745752e-03, 9.34576914e-02,
          1.45745292e-01, 2.92452544e-01, 1.24858595e-01, 7.22055323e-03,
          1.66845899e-02, 2.88729846e-01, 2.92452544e-01, 2.83889647e-04,
          0., 1.34834334e-01, 2.92452544e-01, 1.19787954e-01,
          2.90490855e-02, 1.71754465e-01, 1.82367191e-01, 6.22224979e-05,
          8.77012091e-04, 5.40719964e-02, 2.87054390e-01, 9.53968018e-02,
          1.21620286e-03, 2.03114167e-01, 2.87054390e-01, 4.86419536e-02,
          1.90125007e-04, 1.13163916e-02, 2.87054390e-01, 1.71448126e-01,
          5.57527225e-03, 3.88543471e-03, 1.41563788e-01, 2.87054390e-01,
          2.03910232e-01, 2.23788992e-03, 5.64451469e-03, 2.80620128e-01,
          2.87054390e-01, 1.01114765e-01, 2.41702329e-02, 2.14136466e-01,
          2.87054390e-01, 6.61308616e-02, 1.51942496e-03, 1.79636870e-02,
          2.87054390e-01, 2.63575703e-01, 1.52414441e-02, 6.49471022e-03,
          3.46734881e-01, 3.46734881e-01, 8.30377042e-02, 8.65383714e-04,
          2.02620551e-02, 3.46734881e-01, 3.46734881e-01, 1.73003618e-02,
          4.76789847e-03, 7.47547969e-02, 1.78592846e-01, 6.17668703e-02,
          4.78237346e-02, 4.14774287e-03, 3.46734881e-01, 1.47333115e-01,
          1.67439021e-02, 3.11600463e-03, 1.31746858e-01, 3.41664881e-01,
          3.10531706e-02, 2.87191040e-04, 1.89450253e-02, 3.46734881e-01,
          2.55737364e-01, 1.10439174e-02, 1.89728534e-03, 1.75499462e-03,
          5.38792787e-03, 9.86114377e-04, 3.56312339e-05, 3.91728070e-04,
          2.73525193e-02, 1.52082788e-02, 9.91729205e-04, 0.,
          8.41904664e-04, 2.15209145e-02, 2.87543148e-01, 2.87543148e-01,
          2.12009065e-03, 1.04643889e-02, 6.49111643e-02, 2.87543148e-01,
          5.06890155e-02, 1.18240617e-01, 7.73917809e-02, 2.87543148e-01,
          2.87543148e-01, 7.47932419e-02, 8.22691768e-02, 1.96927935e-01,
          2.87543148e-01, 1.80503890e-01, 1.41828248e-04, 6.77741645e-03,
          9.59388614e-02, 1.06135093e-01, 7.24326633e-03, 5.89933654e-04,
          8.63002520e-03, 4.59341258e-02, 8.43555201e-03, 1.37981579e-01,
          7.61732906e-02, 2.83170581e-01, 2.87543148e-01, 2.19927818e-01,
          1.71090469e-01, 1.09460160e-01, 2.77043045e-01, 1.14362732e-01 ]
      - [ 3.59797366e-02, 2.25039255e-02, 1.16775185e-03, 5.19439345e-04,
          2.25782488e-03, 6.90440321e-03, 9.17804078e-04, 0.,
          7.82301743e-03, 2.74021059e-01, 2.15491503e-01, 5.21289604e-03,
          1.74118835e-03, 4.37971205e-02, 1.91139072e-01, 1.32746948e-02,
          2.73681758e-03, 3.82492840e-02, 3.34926456e-01, 3.23332280e-01,
          9.94464103e-03, 1.54397069e-02, 1.92447230e-01, 3.34926456e-01,
          5.08227982e-02, 1.69058645e-03, 1.00167356e-01, 3.34926456e-01,
          3.34926456e-01, 1.51440464e-02, 2.28118785e-02, 3.07943821e-01,
          3.34926456e-01, 9.93704423e-02, 6.66614575e-03, 1.10316835e-01,
          2.82636106e-01, 2.82636106e-01, 9.20648221e-03, 2.98413914e-03,
          1.17983453e-01, 2.82636106e-01, 2.84856316e-02, 5.30257775e-03,
          6.29068017e-02, 2.82636106e-01, 2.82636106e-01, 1.08693829e-02,
          1.11549757e-02, 2.82636106e-01, 2.82636106e-01, 5.38450442e-02,
          9.28313565e-03, 1.00297786e-01, 2.82636106e-01, 2.82636106e-01,
          6.53604465e-03, 4.63199848e-03, 1.78943768e-01, 2.82636106e-01,
          4.91704680e-02, 6.20076340e-03, 4.63773794e-02, 1.19154543e-01,
          1.19082019e-01, 3.57621983e-02, 3.21594113e-03, 1.37083486e-01,
          2.82636106e-01, 2.64293589e-02, 3.46554304e-03, 2.23720949e-02,
          2.69000411e-01, 2.29918048e-01, 2.93392967e-02, 8.21425300e-03,
          2.69000411e-01, 2.69000411e-01, 5.73801808e-02, 6.39363099e-03,
          6.32993802e-02, 2.69000411e-01, 2.69000411e-01, 4.98607382e-02,
          7.57819100e-04, 1.76624611e-01, 2.69000411e-01, 1.31102398e-01,
          3.15117426e-02, 6.52658716e-02, 6.11943156e-02, 2.69000411e-01,
          1.80699363e-01, 4.05948423e-03, 5.06546311e-02, 1.66011646e-01,
          1.95807531e-01, 3.52662504e-02, 5.41627733e-03, 1.35776788e-01,
          2.69000411e-01, 1.66410059e-01, 2.99581932e-03, 3.09542399e-02,
          2.69000411e-01, 2.69000411e-01, 5.46448268e-02, 1.45549672e-02,
          2.62956262e-01, 2.30024397e-01, 3.15316543e-02, 7.52898604e-02,
          2.40330830e-01, 2.62956262e-01, 5.84552139e-02, 7.70428330e-02,
          1.77273631e-01, 2.22980589e-01, 1.24651790e-01, 4.01416700e-03,
          1.40981479e-02, 1.61620706e-01, 2.62956262e-01, 4.38760966e-02,
          1.51408184e-02, 6.25940263e-02, 1.47266403e-01, 5.36893457e-02,
          5.14071397e-02, 2.62956262e-01, 2.62956262e-01, 1.38028190e-01,
          3.04979831e-02, 2.34822139e-01, 2.62956262e-01, 1.03463069e-01,
          6.20623119e-03, 8.43129214e-03, 2.62956262e-01, 2.00238153e-01,
          3.04600745e-02, 4.77901381e-03, 1.85011968e-01, 2.62956262e-01,
          2.08571181e-01, 1.53316125e-01, 2.70747230e-03, 6.46703923e-03,
          2.01118827e-01, 3.24981302e-01, 5.92342354e-02, 6.67378539e-03,
          2.63099466e-02, 1.25026945e-02, 1.07593559e-01, 2.13881299e-01,
          2.40487568e-02, 1.77069288e-02, 6.97883666e-02, 3.14413849e-03,
          6.48034271e-04, 1.16103016e-04, 3.00531536e-01, 5.50795579e-03,
          1.08735831e-02, 3.24981302e-01, 3.24981302e-01, 1.41714532e-02,
          7.79863039e-04, 3.22448790e-01, 3.24981302e-01, 1.83482662e-01,
          4.06666361e-02, 1.23359472e-01, 1.27435908e-01, 1.28266931e-01,
          8.61605164e-03, 2.45572417e-03, 1.25437886e-01, 3.24981302e-01,
          1.49269961e-02, 2.35584974e-01, 2.77892977e-01, 5.34081087e-02,
          4.06133273e-04, 5.55787124e-02, 2.77892977e-01, 1.52531609e-01,
          2.71370891e-03, 1.69693939e-02, 2.22748339e-01, 2.77892977e-01,
          4.99641895e-02, 2.26950785e-03, 1.07866690e-01, 2.77892977e-01,
          2.25787848e-01, 4.64300206e-03, 1.95126217e-02, 1.02820992e-01,
          2.77892977e-01, 1.20566741e-01, 4.14791750e-03, 1.71248789e-03,
          2.41827816e-01, 2.46644244e-01, 6.69690445e-02, 2.78489897e-03,
          1.02736980e-01, 2.77892977e-01, 1.36113480e-01, 0.,
          1.97613635e-03, 2.77892977e-01, 2.77892977e-01, 3.23106758e-02,
          8.43200907e-02, 7.07666017e-03, 3.32791507e-02, 3.43331903e-01,
          3.43331903e-01, 3.72294686e-03, 6.95779268e-03, 2.01166123e-01,
          3.43331903e-01, 1.95965424e-01, 8.11708439e-03, 2.08194349e-02,
          3.43331903e-01, 3.43331903e-01, 7.30927242e-03, 3.20264604e-03,
          3.30119282e-01, 3.43331903e-01, 1.16579188e-03, 0.,
          6.69812376e-04, 3.38577740e-02, 2.94590257e-02, 1.20095065e-04,
          0., 1.41215639e-03, 4.07701964e-03, 1.95689239e-02,
          1.41635898e-03, 3.16812913e-03, 2.20723927e-01, 1.83615059e-01,
          1.34520780e-03, 0., 2.72773691e-02, 8.34156945e-02,
          1.73002496e-01, 4.40100906e-03, 9.74432379e-03, 2.82343984e-01,
          2.82343984e-01, 1.41855283e-02, 4.57508257e-04, 1.72155753e-01,
          2.82343984e-01, 1.93552941e-01, 7.85055663e-03, 1.34083955e-02,
          2.82343984e-01, 2.82343984e-01, 1.56852938e-02, 5.14710695e-03,
          1.37266085e-01, 2.82343984e-01, 5.07246219e-02, 1.94873230e-03,
          5.18777966e-03, 2.30619863e-01, 2.50542998e-01, 1.09606134e-02,
          4.03683778e-04, 4.40799966e-02, 1.53212517e-01, 1.09898470e-01,
          5.69623848e-03, 9.07534081e-03, 2.82343984e-01, 2.82343984e-01,
          1.35363890e-02, 4.72340686e-03, 8.07285234e-02, 2.82343984e-01,
          8.82101282e-02, 3.79998051e-02, 2.18743980e-01, 2.21076190e-01,
          1.54584244e-01, 2.32881540e-03, 8.34292620e-02, 1.74557686e-01,
          2.51756936e-01, 3.80378254e-02, 5.15502654e-02, 2.51756936e-01,
          2.09550455e-01, 6.43864200e-02, 3.59105092e-04, 2.04684645e-01,
          2.51756936e-01, 2.18592241e-01, 8.38553756e-02, 1.24629037e-02,
          6.88784793e-02, 2.51756936e-01, 2.51756936e-01, 2.28288281e-03,
          1.56858284e-02, 1.04654230e-01, 2.51756936e-01, 5.89526854e-02,
          2.44695116e-02, 1.51616469e-01, 2.51756936e-01, 2.51756936e-01,
          1.55721577e-02, 6.40946478e-02, 2.51756936e-01, 2.51756936e-01 ]
      - [ 1.96155608e-01, 3.39443684e-01, 1.71010330e-01, 1.09555567e-05,
          4.92020324e-02, 3.39443684e-01, 3.39443684e-01, 2.96916272e-02,
          3.85805778e-03, 5.28972782e-02, 1.30209818e-01, 2.42405664e-02,
          2.09151531e-05, 4.41305824e-02, 3.39443684e-01, 2.00135976e-01,
          1.15780840e-02, 1.51766418e-03, 4.47349511e-02, 3.39443684e-01,
          2.11111009e-01, 2.89243506e-03, 7.34688900e-03, 3.39443684e-01,
          3.39443684e-01, 7.68121928e-02, 0., 5.28703094e-04,
          4.26974706e-03, 8.45913426e-04, 0., 2.52521876e-03,
          4.66463678e-02, 4.23591137e-02, 3.09511903e-03, 0.,
          1.62831414e-02, 6.27071857e-02, 4.02713232e-02, 2.12618004e-04,
          3.86074424e-01, 6.89548075e-01, 5.95714808e-01, 8.88266265e-02,
          7.52390406e-05, 0., 0., 0., 0., 0., 0., 9.97541822e-04,
          3.32513970e-04, 0., 0., 0., 0., 0., 0., 0., 0., 0., 0., 0., 0.,
          0., 0., 0., 0., 0., 0., 0., 0., 0., 0., 0., 0., 0., 0., 0., 0.,
          0., 0., 0., 0., 0., 0., 0., 0., 0., 0., 0., 0., 0., 0., 0., 0.,
          0., 0., 0., 0., 0., 0., 0., 0., 0., 0., 0., 1.30448015e-02,
          1.85724661e-01, 3.39245796e-01, 7.81294554e-02, 3.49853326e-05,
          1.44382790e-01, 3.39245796e-01, 3.21534097e-01, 2.76753921e-02,
          1.67414852e-04, 0., 0., 0., 5.34268429e-06, 1.47688563e-03,
          3.93343344e-03, 9.91683570e-04, 4.23753401e-04, 2.23133601e-02,
          5.06859496e-02, 3.39245796e-01, 3.39245796e-01, 1.51227845e-03,
          6.66198041e-03, 3.39245796e-01, 3.39245796e-01, 3.36820602e-01,
          7.77603732e-03, 7.31908949e-04, 1.43965026e-02, 4.56583612e-02,
          4.17303090e-04, 2.25442043e-03, 2.08357219e-02, 1.25817180e-01,
          7.15309307e-02, 0., 0., 0., 0., 0., 0., 0., 0., 0., 0., 0., 0.,
          0., 0., 0., 0., 0., 0., 3.37711453e-01, 0., 0., 0., 0., 0., 0.,
          2.94793230e-02, 9.22383726e-01, 0., 0., 0., 0., 0., 0., 0., 0.,
          0., 0., 0., 0., 0., 0., 0., 0., 0., 0., 0., 0., 0., 0., 0., 0.,
          0., 0., 0., 0., 0., 0., 0., 0., 0., 0., 0., 0., 0., 0., 0., 0.,
          0., 0., 0., 0., 0., 2.75366157e-02, 1.16767157e-02,
          2.19726145e-01, 2.88513273e-01, 2.97782309e-02, 1.01589151e-02,
          9.23124850e-02, 2.88513273e-01, 2.88513273e-01, 4.76742908e-02,
          2.18414841e-03, 4.57272865e-02, 2.41355330e-01, 4.53702770e-02,
          4.98659164e-03, 2.36658193e-02, 2.54880160e-01, 2.87215859e-01,
          2.17318796e-02, 5.05941734e-03, 9.29455012e-02, 2.88513273e-01,
          7.36334547e-02, 6.22274540e-03, 1.45297255e-02, 1.71758473e-01,
          1.74614936e-01, 9.28087309e-02, 2.71169841e-03, 6.86033964e-02,
          2.88513273e-01, 2.28835940e-01, 6.58552535e-03, 4.99429703e-02,
          2.88513273e-01, 2.88513273e-01, 8.54003131e-02, 0.,
          6.53076731e-03, 1.10601567e-01, 4.23900038e-02, 8.64381844e-04,
          2.82875467e-02, 1.86608717e-01, 3.20926219e-01, 3.14397924e-03,
          0., 0., 5.14148211e-04, 8.90162424e-04, 0., 6.95514260e-03,
          1.64792594e-02, 1.32192839e-02, 2.35520571e-01, 2.80086976e-03,
          9.29241851e-02, 3.89578015e-01, 3.89578015e-01, 2.40618512e-02,
          3.09872925e-01, 3.89578015e-01, 3.89578015e-01, 8.60484876e-03,
          5.18679619e-04, 1.38747022e-02, 7.97116160e-02, 5.21058477e-02,
          8.85235611e-03, 1.07713915e-01, 2.01061219e-01, 7.98784941e-02,
          0., 0., 0., 0., 0., 0., 0., 0., 0., 0., 0., 0., 0., 0., 0., 0.,
          0., 0., 0., 0., 0., 0., 0., 0., 0., 0., 0., 0., 0., 0., 0., 0.,
          0., 0., 0., 0. ]
      - [ 3.60313104e-03, 2.07339879e-02, 2.81834453e-01, 2.81834453e-01,
          3.22227031e-02, 4.02841368e-04, 1.20500706e-01, 2.81834453e-01,
          1.90833986e-01, 1.38088111e-02, 8.91674682e-03, 1.09667301e-01,
          2.01704115e-01, 1.38828546e-01, 1.20515493e-03, 8.98889378e-02,
          2.59676129e-01, 1.15484864e-01, 1.65221968e-03, 4.38043438e-02,
          2.81834453e-01, 2.81834453e-01, 0., 0., 2.00655714e-01,
          2.81834453e-01, 7.34080970e-02, 1.04345800e-03, 2.95200590e-02,
          2.81834453e-01, 1.72601968e-01, 0., 0., 2.57137001e-01,
          2.81834453e-01, 6.21094704e-02, 7.75833204e-02, 6.49686065e-03,
          5.75815737e-02, 3.82165730e-01, 3.82165730e-01, 3.80917615e-03,
          2.23314296e-02, 8.13697502e-02, 3.82165730e-01, 1.61286011e-01,
          6.29073055e-03, 1.02033384e-01, 3.82165730e-01, 3.82165730e-01,
          1.81442481e-02, 5.19416388e-03, 1.79384261e-01, 3.82165730e-01,
          2.67838681e-04, 2.64757639e-03, 3.37181613e-02, 7.65654258e-03,
          4.32750816e-03, 0., 9.94002223e-02, 1.27822757e-01,
          1.12075722e-02, 1.77802437e-03, 0., 5.64121176e-03,
          4.48293574e-02, 6.86639696e-02, 0., 1.69527630e-05,
          6.72300463e-04, 6.54300814e-03, 1.22081697e-01, 4.65613615e-04,
          6.38988763e-02, 3.29937845e-01, 3.29937845e-01, 5.95599134e-03,
          6.71650143e-03, 1.45130768e-01, 3.29937845e-01, 2.04294026e-01,
          4.51588538e-03, 5.43532073e-02, 3.29937845e-01, 3.29937845e-01,
          1.95284151e-02, 2.99454574e-02, 2.15184763e-01, 3.29937845e-01,
          6.10556826e-03, 0., 1.18914684e-02, 9.78228152e-02,
          1.29478380e-01, 5.04286836e-05, 1.23419624e-03, 1.14878947e-02,
          4.07146960e-02, 5.30642644e-02, 2.36546365e-03, 1.99520942e-02,
          2.15212792e-01, 3.20363402e-01, 1.35385720e-02, 1.58608165e-02,
          5.88556603e-02, 1.63566247e-01, 9.88044497e-03, 9.48211923e-02,
          2.86177903e-01, 1.21731415e-01, 0., 4.59317258e-03,
          2.54978746e-01, 2.53330648e-01, 2.52392571e-02, 9.78376716e-03,
          1.04608811e-01, 2.86177903e-01, 1.07102826e-01, 0.,
          8.71412922e-03, 2.86177903e-01, 2.86177903e-01, 3.46841961e-02,
          7.74906427e-02, 1.84976369e-01, 2.86177903e-01, 7.84455016e-02,
          3.68572660e-02, 9.07608494e-02, 2.73666948e-01, 8.97964910e-02,
          2.12580059e-02, 7.65986666e-02, 1.95032343e-01, 2.86177903e-01,
          6.85196370e-02, 4.05426212e-02, 1.45743996e-01, 2.86177903e-01,
          1.86855242e-01, 2.30594520e-02, 5.86048281e-03, 1.03944398e-01,
          3.87315869e-01, 4.89704013e-02, 0., 1.58715770e-02,
          3.87315869e-01, 3.87315869e-01, 4.46081869e-02, 0., 0., 0., 0.,
          0., 0., 0., 0., 0., 4.62407842e-02, 1.77988455e-01,
          3.87315869e-01, 1.67730339e-02, 4.00770344e-02, 2.31992751e-01,
          3.87315869e-01, 3.75183970e-01, 1.71687100e-02, 0., 0., 0., 0.,
          0., 0., 0., 0., 0., 0., 0., 0., 0., 0., 0., 0., 0., 0., 0., 0.,
          0., 0., 9.62525666e-01, 0., 0., 0., 0., 0., 0., 0., 0., 0., 0.,
          0., 0., 0., 0., 0., 0., 0., 0., 0., 0., 0., 0., 1.77122682e-01,
          2.94339895e-01, 2.94339895e-01, 2.84652144e-01, 1.97509125e-01,
          2.94339895e-01, 2.94339895e-01, 6.30339235e-02, 3.98370847e-02,
          1.75631091e-01, 2.79026061e-01, 2.94339895e-01, 2.36381873e-01,
          2.15816572e-01, 2.94339895e-01, 2.94339895e-01, 1.34628981e-01,
          3.94068621e-02, 0., 9.48243178e-05, 5.76699991e-03,
          1.72105022e-02, 2.59356331e-02, 1.64367110e-02, 1.64953293e-03,
          4.18002019e-04, 0., 0., 4.96698813e-05, 4.18152055e-03,
          1.45994155e-02, 2.78874040e-02, 2.26220544e-02, 2.97208945e-03,
          7.98003748e-04, 0., 1.27973840e-01, 2.19378114e-01,
          3.93845469e-01, 8.49290472e-03, 2.43886366e-01, 5.50761521e-01,
          5.50761521e-01, 3.25298041e-01, 2.50610057e-02, 0., 0., 0., 0.,
          0., 0., 0., 0., 0., 0., 0., 0., 2.73964659e-04, 2.93827280e-02,
          3.60820033e-02, 6.11418486e-03, 1.71545951e-03, 0., 0., 0., 0.,
          0., 0., 0., 0., 0., 0., 0., 0., 0., 0., 0., 0., 0., 0., 0., 0.,
          0., 0., 0., 0., 0., 0., 0., 0., 0., 0., 0., 0., 0., 0., 0., 0.,
          0., 0., 0., 0., 0., 0., 0., 0., 0., 0. ]
      - [ 1.62081122e-01, 2.81969756e-01, 1.20477930e-01, 0.,
          8.87335930e-03, 2.81969756e-01, 2.08748251e-01, 1.80653501e-02,
          4.23723366e-03, 2.81969756e-01, 2.81969756e-01, 4.92548347e-02,
          2.91390083e-04, 1.31914958e-01, 2.81969756e-01, 1.77352756e-01,
          1.50917908e-02, 2.17038710e-02, 4.63909097e-02, 2.81969756e-01,
          2.81969756e-01, 2.20969766e-02, 6.09032286e-04, 2.01440021e-01,
          2.81969756e-01, 1.45176038e-01, 6.43989909e-03, 2.64797453e-02,
          1.68437541e-01, 1.13795675e-01, 6.57992717e-03, 3.31813376e-03,
          1.79828808e-01, 2.81969756e-01, 7.80418590e-02, 3.71595123e-03,
          3.65162343e-01, 2.34959289e-01, 0., 6.17458224e-02,
          3.65162343e-01, 3.65162343e-01, 4.82662506e-02, 2.16542068e-03,
          1.88533232e-01, 2.61212379e-01, 9.61449742e-03, 1.67676806e-02,
          3.65162343e-01, 3.65162343e-01, 1.20367728e-01, 4.40029195e-03,
          1.15631327e-01, 3.65162343e-01, 3.48515878e-03, 3.47794313e-03,
          0., 0., 5.08656772e-03, 5.05834557e-02, 1.06770787e-02,
          1.05203921e-03, 0., 0., 0., 3.83497885e-04, 1.30819073e-02,
          3.73578887e-03, 0., 0., 1.17943207e-04, 2.70676246e-05,
          4.02868837e-02, 7.55450316e-03, 1.13943778e-01, 3.01276535e-01,
          1.73407227e-01, 6.43629162e-03, 9.90610942e-03, 2.77799577e-01,
          2.60001868e-01, 7.69811263e-03, 1.92212462e-02, 2.57031709e-01,
          3.01276535e-01, 4.00316454e-02, 5.97716251e-04, 9.02499035e-02,
          3.01276535e-01, 2.41258964e-01, 2.91954144e-04, 1.25414217e-02,
          1.06031373e-01, 1.29526839e-01, 6.88519282e-03, 0.,
          6.97300024e-03, 5.71666881e-02, 1.50046162e-02, 4.26702230e-04,
          8.57320279e-02, 3.01276535e-01, 3.01276535e-01, 5.88529510e-03,
          4.13221028e-03, 2.87763685e-01, 3.01276535e-01, 7.94574544e-02,
          1.05397701e-02, 1.40692845e-01, 2.81804770e-01, 1.62543535e-01,
          9.81331454e-04, 2.54463796e-02, 2.81804770e-01, 2.81804770e-01,
          5.13467565e-02, 1.62186252e-03, 3.42900343e-02, 1.37647763e-01,
          7.35455379e-02, 8.65880691e-04, 1.47412214e-02, 1.68535411e-01,
          2.19444901e-01, 3.49558257e-02, 9.78298858e-03, 4.61868420e-02,
          2.81804770e-01, 2.81804770e-01, 1.49621638e-02, 1.76620472e-03,
          1.72949880e-01, 2.81804770e-01, 1.58996210e-01, 1.22397982e-01,
          1.67204030e-02, 2.11828798e-01, 2.81804770e-01, 1.25900730e-01,
          2.85585597e-02, 8.33447203e-02, 2.81804770e-01, 2.59488970e-01,
          6.32496551e-04, 0., 1.21622800e-03, 1.22135936e-03, 0., 0.,
          8.79436266e-03, 3.01718190e-02, 7.45689077e-03, 2.89239484e-04,
          0., 0., 0., 0., 0., 0., 0., 2.89239484e-04, 3.63936037e-01,
          2.78243031e-02, 4.82416935e-02, 1.72850028e-01, 3.63936037e-01,
          1.96507320e-01, 4.98466752e-02, 2.53924459e-01, 3.63936037e-01,
          3.63936037e-01, 7.73176039e-03, 0., 3.86739038e-02,
          3.63936037e-01, 2.04867586e-01, 1.16767861e-01, 7.00253993e-02,
          3.63936037e-01, 0., 1.54698268e-02, 5.98853752e-02,
          2.18495298e-02, 0., 0., 1.57692586e-03, 4.03311523e-03,
          3.99523298e-04, 0., 2.86550790e-01, 3.57698679e-01,
          2.15152636e-01, 0., 6.46097139e-02, 3.57698679e-01,
          3.57698679e-01, 3.78272384e-02, 5.27443923e-02, 2.41433419e-02,
          5.50546832e-02, 4.18474246e-03, 4.16234545e-02, 2.96461489e-02,
          3.27301882e-02, 1.86368227e-02, 5.85023202e-02, 0.,
          3.57698679e-01, 3.57698679e-01, 1.89337209e-02, 0.,
          6.39800131e-02, 3.57698679e-01, 2.68448383e-01, 4.94411727e-03,
          6.54511387e-03, 1.41346976e-02, 2.42324188e-01, 2.67497301e-01,
          3.64086777e-02, 4.02106997e-03, 5.62808439e-02, 2.67497301e-01,
          1.96058512e-01, 1.32495821e-01, 1.15037039e-02, 1.12518728e-01,
          2.67497301e-01, 2.44921237e-01, 5.74140139e-02, 2.00593285e-02,
          2.65121132e-01, 2.67497301e-01, 8.40094686e-03, 2.74656666e-03,
          9.86797214e-02, 2.67497301e-01, 4.90464084e-02, 1.73637806e-03,
          7.46663474e-03, 2.67497301e-01, 1.92896903e-01, 5.29774912e-02,
          1.59003166e-03, 4.70709801e-02, 2.67497301e-01, 1.79368511e-01,
          2.00306643e-02, 3.32365674e-03, 2.67497301e-01, 2.67497301e-01,
          2.75544852e-01, 1.58817507e-02, 2.33606007e-02, 1.19538955e-01,
          2.75544852e-01, 1.65838122e-01, 1.84937846e-02, 8.59802887e-02,
          2.75544852e-01, 2.75544852e-01, 3.69826704e-03, 0.,
          3.14728580e-02, 2.75544852e-01, 1.50885418e-01, 6.73727021e-02,
          3.56890634e-02, 2.39609748e-01, 1.39681160e-01, 2.46553333e-03,
          1.90649424e-02, 2.64733106e-01, 2.75544852e-01, 4.88591157e-02,
          4.00653109e-03, 1.75903782e-01, 2.75544852e-01, 2.31675252e-01,
          2.46643052e-02, 2.92872149e-03, 5.38993366e-02, 2.73738980e-01,
          6.75973445e-02, 1.30093535e-02, 2.58900952e-02, 2.60008156e-01,
          4.77448478e-02, 2.92742718e-02, 4.89616469e-02, 5.56286424e-03,
          6.22816682e-02, 3.95699963e-02, 3.60635817e-02, 1.80898104e-02,
          4.84866202e-02, 1.82942152e-02, 3.03662628e-01, 3.03662628e-01,
          0., 0., 5.20587936e-02, 3.03662628e-01, 1.72579765e-01,
          2.80317647e-04, 3.03662628e-01, 1.64912656e-01, 2.88861450e-02,
          1.02552539e-02, 1.52054563e-01, 1.99372783e-01, 1.97959710e-02,
          3.02345725e-03, 1.19637817e-01, 3.03662628e-01, 3.03662628e-01,
          3.03662628e-01, 9.93286609e-04, 7.06692711e-02, 3.03662628e-01,
          3.03662628e-01, 8.67109746e-02, 3.18716168e-02 ]
      - [ 3.55488583e-02, 1.53696164e-01, 2.14287445e-01, 0.,
          2.87545001e-04, 5.38715757e-02, 2.90196627e-01, 1.11439846e-01,
          3.42932739e-03, 2.34672427e-01, 2.45828211e-01, 6.47834223e-03,
          0., 1.86142623e-02, 2.61538535e-01, 2.04369798e-02,
          1.35311857e-04, 1.36946030e-02, 2.90196627e-01, 2.90196627e-01,
          1.81711420e-01, 3.86429788e-03, 4.46559973e-02, 2.90196627e-01,
          2.90196627e-01, 9.28445086e-02, 2.25759838e-02, 2.90196627e-01,
          2.90196627e-01, 8.66227224e-03, 1.08566426e-03, 6.30571693e-02,
          2.90196627e-01, 5.90533279e-02, 0., 2.55537312e-02,
          3.10447782e-01, 3.10447782e-01, 2.51395702e-02, 0.,
          7.42999837e-02, 3.10447782e-01, 6.58867806e-02, 0.,
          2.06323620e-02, 3.05780470e-01, 3.10447782e-01, 1.50252432e-01,
          2.01493621e-01, 1.10463805e-01, 3.10447782e-01, 1.10659003e-01,
          1.26383826e-01, 9.78052467e-02, 2.68517315e-01, 2.83348620e-01,
          7.00981636e-03, 0., 6.24437071e-02, 3.10447782e-01,
          5.14116660e-02, 0., 1.07426057e-02, 4.67905775e-02,
          4.40801010e-02, 3.11014727e-02, 4.25026827e-02, 2.40649413e-02,
          1.84539661e-01, 1.63621102e-02, 1.14968102e-02, 3.62288021e-03,
          5.19467704e-02, 6.55135810e-02, 2.81225830e-01, 2.81225830e-01,
          4.24800627e-02, 1.36362821e-01, 1.00398824e-01, 2.81225830e-01,
          1.70959383e-01, 6.50338596e-04, 1.12649882e-02, 1.62991434e-01,
          2.31117666e-01, 4.99665795e-04, 7.04024336e-04, 9.25250426e-02,
          2.81225830e-01, 1.05562568e-01, 7.72178813e-04, 2.59378832e-02,
          2.61979699e-01, 2.81225830e-01, 4.23536403e-03, 1.17288362e-02,
          6.84786662e-02, 2.58415759e-01, 6.20871820e-02, 1.01192763e-05,
          3.47019061e-02, 2.81225830e-01, 2.81225830e-01, 1.46934101e-02,
          2.75487808e-04, 1.60995886e-01, 2.81225830e-01, 1.60779372e-01,
          3.45311970e-01, 3.45311970e-01, 1.90557614e-01, 2.30050627e-02,
          1.77592501e-01, 3.45311970e-01, 3.45311970e-01, 7.66825452e-02,
          4.38852385e-02, 2.74237841e-01, 2.60110676e-01, 2.56965752e-03,
          3.12568853e-03, 8.34695026e-02, 3.45311970e-01, 5.13069518e-02,
          0., 1.39842257e-02, 1.14328481e-01, 1.06672026e-01,
          5.88970594e-02, 1.72739457e-02, 1.09385043e-01, 3.45311970e-01,
          8.63601714e-02, 1.01957954e-02, 1.40317678e-02, 8.27597827e-03,
          6.92906324e-03, 4.70627056e-05, 7.16197537e-04, 1.09303547e-02,
          6.36341497e-02, 4.30358155e-03, 0., 3.43964843e-04,
          5.22808075e-01, 5.51548362e-01, 1.58723835e-02, 0.,
          1.81380242e-01, 5.85962176e-01, 1.84640035e-01, 0.,
          2.30450388e-02, 1.58020668e-03, 2.26307148e-03, 1.49586853e-02,
          1.60650536e-02, 4.55728360e-03, 6.95322379e-02, 4.59431484e-03,
          0., 0., 0., 0., 0., 0., 5.22161322e-03, 9.81316622e-03, 0., 0.,
          0., 0., 0., 0., 0., 0., 0., 0., 0., 0., 0., 2.42941640e-02,
          2.28289813e-01, 2.66664833e-01, 1.28880413e-02, 0.,
          4.28128019e-02, 1.51381508e-01, 3.42348032e-02, 1.37837211e-04,
          4.66569476e-02, 3.86230588e-01, 3.86230588e-01, 7.64545426e-02,
          7.59970723e-03, 1.75209701e-01, 3.86230588e-01, 3.42515945e-01,
          0., 9.93641093e-04, 1.00232875e-02, 2.63438318e-02,
          2.79520894e-03, 0., 7.26956001e-04, 3.29567492e-03,
          1.11839420e-03, 1.21621073e-04, 5.66292927e-03, 1.23428069e-01,
          3.86230588e-01, 5.15852906e-02, 1.65145397e-02, 2.47699507e-02,
          2.46917978e-01, 1.13346174e-01, 0., 4.02103886e-02,
          1.91528291e-01, 1.71114847e-01, 6.79977953e-01, 6.79977953e-01,
          2.98575815e-02, 0., 0., 0., 0., 0., 0., 0., 0., 0., 0., 0., 0.,
          0., 0., 0., 0., 0., 0., 0., 0., 0., 0., 0., 0., 0., 0., 0., 0.,
          0., 0., 0., 0., 0., 0., 0., 0., 0., 0., 0., 0., 0., 0., 0., 0.,
          0., 0., 0., 0., 0., 0., 0., 0., 0., 0., 0., 0., 0., 0., 0., 0.,
          0., 0., 0., 0., 0., 0., 0., 0., 0., 0., 0., 0., 0., 0., 0.,
          1.59360170e-02, 3.75885069e-01, 6.52312696e-01, 4.83519465e-01,
          1.82331920e-01, 1.65914908e-01, 3.45331669e-01, 1.12314545e-01,
          0., 0., 0., 0., 0., 0., 0., 0., 0., 0., 0., 0., 0., 0., 0., 0.,
          0., 0. ]
      - [ 4.50276807e-02, 7.06115514e-02, 2.88943887e-01, 2.88943887e-01,
          1.38494059e-01, 0., 2.88943887e-01, 2.88943887e-01,
          2.37702176e-01, 2.76339566e-03, 5.18883253e-03, 1.92192532e-02,
          9.25357714e-02, 7.73402750e-02, 2.91942786e-02, 2.45343577e-02,
          2.43896190e-02, 9.79762524e-03, 8.20687264e-02, 9.18410048e-02,
          2.88943887e-01, 2.88943887e-01, 2.86774248e-01, 0.,
          2.88943887e-01, 2.88943887e-01, 2.88943887e-01, 1.06899319e-02,
          6.52296562e-03, 5.20184375e-02, 6.84117600e-02, 4.74685915e-02,
          0., 1.05827406e-01, 1.39464542e-01, 8.98343846e-02, 0.,
          2.79718880e-02, 1.04750715e-01, 4.83326167e-01, 4.83326167e-01,
          4.83326167e-01, 2.60227025e-01, 7.21332207e-02, 0., 0., 0., 0.,
          4.37533669e-02, 2.46665210e-01, 3.47417206e-01, 1.55777469e-01,
          4.42734361e-02, 0., 0., 0., 0., 0., 0., 0., 0., 0., 0., 0., 0.,
          0., 0., 0., 0., 0., 0., 0., 0., 0., 0., 0., 0., 0., 0., 0., 0.,
          0., 0., 0., 0., 0., 0., 0., 0., 0., 0., 0., 0., 0., 0., 0., 0.,
          0., 0., 0., 0., 0., 0., 0., 0., 0., 0., 0., 6.23851009e-02,
          1.08443998e-01, 3.30310225e-01, 3.30310225e-01, 3.30310225e-01,
          0., 3.30310225e-01, 3.30310225e-01, 3.30310225e-01,
          1.29674226e-02, 2.04756483e-02, 1.47559315e-01, 1.77636221e-01,
          1.70738146e-01, 0., 2.44634643e-01, 2.62892753e-01,
          1.89966008e-01, 1.25035958e-03, 1.94857437e-02, 1.13667861e-01,
          1.03784189e-01, 1.41997650e-01, 0., 1.00141399e-01,
          7.22305700e-02, 5.84303513e-02, 3.50100687e-04, 6.63160998e-03,
          3.94507796e-02, 3.70238237e-02, 7.29008242e-02, 0.,
          6.75278828e-02, 4.16206867e-02, 2.88375523e-02, 0., 0., 0., 0.,
          0., 0., 0., 0., 0., 0., 0., 0., 0., 0., 0., 0., 0., 0., 0., 0.,
          0., 0., 0., 0., 0., 0., 0., 0., 0., 0., 0., 0., 0., 0., 0., 0.,
          0., 0., 0., 0., 0., 0., 0., 0., 0., 0., 0., 0., 0., 0., 0., 0.,
          0., 0., 0., 0., 0., 0., 0., 0., 0., 0., 0., 0., 0., 0., 0., 0.,
          0., 0., 0., 0., 0., 0., 0., 0., 0., 0., 0., 0., 0., 0., 0., 0.,
          0., 0., 0., 0., 0., 0., 0., 0., 0., 0., 0., 0., 0., 0., 0., 0.,
          0., 0., 0., 0., 0., 0., 0., 0., 0., 0., 0., 0., 0., 0., 0., 0.,
          0., 0., 0., 0., 0., 0., 0., 0., 0., 0., 0., 0., 0., 0., 0., 0.,
          0., 0., 0., 0., 0., 0., 0., 0., 0., 0., 0., 0., 0., 0., 0., 0.,
          0., 0., 0., 0., 0., 0., 0., 0., 0., 0., 0., 0., 0., 0., 0., 0.,
          0., 0., 0., 0., 0., 0., 0., 0., 0., 0., 0., 0., 0., 0., 0., 0. ]
      - [ 0., 8.57695937e-02, 2.83996016e-01, 2.37646610e-01,
          6.31438917e-04, 0., 2.83438057e-01, 2.83996016e-01,
          5.39327450e-02, 1.43105746e-04, 4.18051034e-02, 2.32149482e-01,
          1.24536708e-01, 2.66964268e-02, 5.48088341e-04, 2.35936657e-01,
          2.83996016e-01, 3.48462798e-02, 0., 1.95451975e-01,
          2.83996016e-01, 4.67565283e-02, 0., 0., 2.83996016e-01,
          2.32895672e-01, 9.12074838e-03, 0., 1.17171347e-01,
          2.83996016e-01, 2.29537711e-02, 0., 0., 2.83996016e-01,
          2.18480542e-01, 7.91288726e-03, 1.01550091e-02, 5.08310599e-03,
          5.23309894e-02, 3.98944169e-01, 2.32588306e-01, 4.35988931e-03,
          4.55854349e-02, 1.41735524e-01, 1.99109539e-01, 5.99202476e-02,
          3.07095740e-02, 1.42561540e-01, 3.98944169e-01, 3.98944169e-01,
          4.95024538e-03, 9.20757744e-03, 3.98944169e-01, 3.98944169e-01,
          0., 1.67564969e-04, 8.92265933e-04, 3.95060750e-03,
          2.66453298e-03, 0., 9.33053717e-02, 3.11194863e-02,
          1.40417887e-05, 2.53756694e-03, 4.49905824e-03, 1.57065373e-02,
          1.89005852e-01, 9.08900648e-02, 1.08828978e-03, 2.07002135e-03,
          2.44907681e-02, 4.36987393e-02, 4.87629287e-02, 1.58485677e-02,
          4.88043986e-02, 2.90085822e-01, 2.53099501e-01, 4.93417028e-03,
          1.00356676e-02, 2.87261397e-01, 2.90085822e-01, 7.91173875e-02,
          5.40895201e-03, 2.23874506e-02, 2.90085822e-01, 2.17333883e-01,
          7.21994182e-03, 1.89379081e-02, 2.41987839e-01, 2.90085822e-01,
          1.08595304e-02, 4.39056149e-03, 1.68664232e-02, 2.77458280e-01,
          1.23672202e-01, 1.87553442e-03, 4.28376719e-03, 6.31320626e-02,
          1.28999129e-01, 6.28064200e-02, 2.79239449e-03, 1.90374721e-02,
          2.90085822e-01, 2.90085822e-01, 1.23870494e-02, 2.48689335e-02,
          1.57831252e-01, 2.90085822e-01, 3.09380260e-03, 2.32780725e-01,
          3.02592248e-01, 2.04393174e-04, 0., 4.41189297e-03,
          3.02592248e-01, 1.56779140e-01, 0., 1.54351757e-03,
          1.37326762e-01, 3.02592248e-01, 1.39847965e-04, 0.,
          3.87564907e-03, 3.02592248e-01, 1.58080339e-01, 0.,
          5.12514599e-02, 3.02592248e-01, 3.02592248e-01, 0., 0.,
          1.36726916e-01, 3.02592248e-01, 1.11184277e-01, 0.,
          1.81247275e-02, 1.93636775e-01, 2.25675762e-01, 0., 0.,
          9.08298269e-02, 3.02592248e-01, 1.05509847e-01, 0., 0., 0., 0.,
          0., 0., 0., 5.51864982e-01, 5.27356446e-01, 0., 0., 0., 0., 0.,
          0., 0., 0., 0., 0., 0., 0., 0., 0., 0., 0., 5.51864982e-01,
          3.27527732e-01, 0., 0., 0., 0., 0., 0., 0., 0., 0., 0., 0., 0.,
          4.29065293e-03, 2.18837261e-01, 1.83506459e-01, 0.,
          1.61418947e-03, 1.49207597e-03, 9.07791965e-03, 1.23049423e-01,
          0., 3.96200940e-02, 5.30128241e-01, 5.30128241e-01,
          7.58368373e-02, 1.09527260e-01, 2.29675949e-01, 5.13570309e-01,
          0., 0., 0., 0., 0., 0., 0., 0., 0., 0., 0., 0., 0., 0., 0., 0.,
          0., 0., 1.34065524e-01, 3.30355257e-01, 3.30355257e-01,
          7.97562674e-02, 5.73597103e-02, 3.30355257e-01, 3.30355257e-01,
          1.03676170e-01, 0., 3.42121832e-02, 2.41073638e-01,
          1.43916413e-01, 8.25064722e-03, 1.04378248e-02, 2.59212315e-01,
          3.30355257e-01, 7.42217675e-02, 0., 4.23291586e-02,
          2.28728920e-01, 1.67957321e-01, 1.01081029e-01, 9.61768553e-02,
          2.56451488e-01, 2.64124334e-01, 2.66437978e-02, 0.,
          6.54143188e-03, 3.65351066e-02, 2.10503303e-02, 1.04566570e-02,
          1.75411012e-02, 9.16808322e-02, 1.04777306e-01, 1.14412969e-02,
          0., 0., 0., 0., 0., 0., 0., 9.44024384e-01, 3.15277636e-01, 0.,
          0., 0., 0., 0., 0., 0., 0., 0., 0., 0., 0., 0., 0., 0., 0., 0.,
          0., 0., 0., 0., 0., 0., 0., 0., 0., 0., 0., 0., 0., 0., 0., 0.,
          0., 0., 0., 0., 0., 0., 0., 0., 0., 0., 0., 0., 0., 0., 0., 0.,
          0., 0., 0., 0., 0., 0., 0., 0., 0., 0., 0., 0., 0., 0., 0. ]
      - [ 3.81807834e-01, 1.30599700e-02, 0., 6.15048520e-02,
          3.81807834e-01, 3.18201870e-01, 0., 3.32900137e-03,
          3.17769915e-01, 3.81807834e-01, 9.54238977e-03, 0.,
          1.30543858e-01, 3.81807834e-01, 3.01445276e-01, 0.,
          2.04413105e-03, 3.09304446e-01, 0., 0., 0., 2.47105630e-03,
          5.32475598e-02, 1.07452339e-02, 0., 0., 0., 0., 0., 0.,
          3.23110115e-04, 1.57196093e-02, 1.60205259e-03, 0., 0., 0.,
          3.47953826e-01, 8.10243189e-03, 0., 5.76769598e-02,
          3.47953826e-01, 2.60410845e-01, 6.03817112e-04, 4.81467089e-03,
          2.64027625e-01, 3.47953826e-01, 1.45937383e-01, 2.58531328e-02,
          2.89782137e-02, 3.47953826e-01, 2.81043768e-01, 1.89646408e-02,
          4.39475477e-03, 1.83851585e-01, 0., 0., 0., 5.54623730e-05,
          5.38079534e-03, 1.08512126e-04, 0., 0., 0., 2.24222437e-01,
          2.89797515e-01, 1.24506012e-01, 1.46084636e-01, 8.30506906e-02,
          2.30097055e-01, 6.49260730e-02, 1.41839264e-03, 1.16105760e-02,
          2.77176172e-01, 2.77176172e-01, 1.60361882e-02, 2.07850765e-02,
          2.70118535e-01, 2.77176172e-01, 5.99579923e-02, 2.94901058e-03,
          5.50738201e-02, 2.77176172e-01, 2.77176172e-01, 2.00047698e-02,
          6.31729234e-03, 2.24280268e-01, 2.77176172e-01, 1.68354511e-01,
          1.14737703e-02, 4.27430496e-02, 2.28840321e-01, 2.77176172e-01,
          5.58674820e-02, 7.86416084e-02, 7.62117878e-02, 2.77176172e-01,
          1.06692247e-01, 3.31465714e-03, 1.13878753e-02, 1.24938108e-01,
          1.94421634e-01, 7.10351858e-03, 1.06862690e-02, 3.41261961e-02,
          2.77176172e-01, 1.03298701e-01, 4.69514262e-03, 4.48292540e-03,
          0., 0., 0., 0., 0., 0., 0., 0., 0., 0., 0., 0., 0., 0., 0., 0.,
          0., 0., 0., 0., 0., 0., 0., 0., 0., 0., 0., 0., 0., 0., 0., 0.,
          0., 0., 0., 0., 0., 0., 0., 0., 0., 0., 0., 0., 0.,
          3.95936012e-01, 3.95936012e-01, 3.95936012e-01, 3.95936012e-01,
          3.95936012e-01, 3.95936012e-01, 2.34601513e-01, 5.40223299e-03,
          1.96359511e-02, 0., 0., 0., 0., 0., 0., 0., 0., 0., 0., 0., 0.,
          0., 0., 0., 0., 0., 0., 3.55687857e-01, 3.55687857e-01,
          2.32227296e-01, 3.55687857e-01, 3.55687857e-01, 3.55687857e-01,
          3.13263178e-01, 9.11301933e-03, 2.11063549e-02, 1.34162262e-01,
          1.34240776e-01, 1.72404144e-02, 5.84053136e-02, 1.31058201e-01,
          3.55687857e-01, 1.66617051e-01, 5.80163393e-03, 8.47604312e-03,
          0., 0., 0., 0., 0., 0., 0., 0., 0., 0., 0., 0., 0., 0., 0., 0.,
          0., 0., 0., 0., 0., 0., 0., 0., 0., 0., 0., 0., 0., 0., 0., 0.,
          0., 0., 0., 0., 0., 0., 0., 0., 0., 0., 0., 0., 0., 0., 0., 0.,
          0., 0., 0., 0., 0., 0., 0., 0., 0., 0., 0., 0., 0., 0., 0., 0.,
          0., 0., 0., 0., 0., 0., 0., 0., 0., 0., 0., 0., 0., 0., 0., 0.,
          0., 0., 0., 0., 0., 0., 0., 0., 0., 0., 0., 0., 0., 0., 0., 0.,
          0., 0., 0., 0., 0., 0., 0., 0., 0., 0., 0., 0., 0., 0., 0., 0.,
          0., 0., 0., 0., 0., 0., 0., 0., 0., 0., 0., 0., 0., 0. ]
      - [ 8.83377064e-03, 1.84278637e-01, 3.84703964e-01, 3.12382989e-02,
          1.32359192e-03, 2.92863827e-02, 3.84703964e-01, 3.84703964e-01,
          1.34968553e-02, 0., 0., 0., 0., 0., 0., 0., 0., 0.,
          9.21010564e-04, 2.36383036e-01, 3.84703964e-01, 1.80574805e-02,
          0., 1.84725411e-03, 3.84703964e-01, 3.84703964e-01,
          1.78477692e-03, 8.78007859e-02, 8.65284055e-02, 0.,
          7.80061760e-04, 3.89491627e-03, 2.52412576e-02, 3.34226107e-03,
          0., 7.00435042e-03, 1.19677307e-02, 1.13285948e-02, 0., 0.,
          1.53449932e-04, 3.65822751e-04, 7.44115732e-06, 0.,
          1.07627932e-03, 2.56844014e-01, 1.42289609e-01, 4.33780206e-03,
          5.77195967e-03, 3.07854135e-02, 6.59056604e-02, 5.72003191e-03,
          6.46357890e-04, 3.02107576e-02, 3.81392658e-01, 3.81392658e-01,
          0., 2.16493220e-03, 4.43303362e-02, 2.82003522e-01,
          2.64892243e-02, 1.88749764e-04, 2.46879570e-02, 3.81392658e-01,
          3.81392658e-01, 1.95462294e-02, 1.75856147e-02, 2.84540892e-01,
          3.81392658e-01, 8.26749206e-02, 1.59429631e-03, 6.93616793e-02,
          2.65731961e-01, 1.21088102e-01, 3.23388129e-02, 2.58737169e-02,
          4.86259796e-02, 8.39999765e-02, 3.16975974e-02, 9.74825397e-02,
          8.60859305e-02, 9.87177417e-02, 3.76242027e-02, 3.31276841e-02,
          2.41827816e-02, 2.29854546e-02, 3.03462911e-02, 5.09786420e-02,
          1.54876456e-01, 7.43351653e-02, 2.78617859e-01, 2.78617859e-01,
          2.78617859e-01, 1.63034633e-01, 2.36700669e-01, 2.78617859e-01,
          1.46349967e-01, 2.78617859e-01, 1.13533787e-01, 1.25223011e-01,
          7.50388429e-02, 2.78617859e-01, 2.16627613e-01, 7.52005130e-02,
          1.06873825e-01, 2.61605144e-01, 2.78617859e-01, 1.49725378e-01,
          3.41964960e-02, 1.24712422e-01, 2.14664802e-01, 8.32441542e-03,
          1.61201030e-03, 1.18188458e-02, 2.79389113e-01, 1.44074023e-01,
          1.67194719e-03, 2.41263747e-01, 2.40562156e-01, 1.10926607e-03,
          1.00566063e-03, 2.70476509e-02, 2.03261808e-01, 2.00277939e-02,
          6.96470554e-04, 1.57332234e-02, 2.03943536e-01, 2.79389113e-01,
          2.79389113e-01, 6.17411025e-02, 2.11647470e-02, 2.61020780e-01,
          2.79389113e-01, 2.76337087e-01, 3.59101631e-02, 2.79389113e-01,
          2.79389113e-01, 6.33368688e-03, 1.32594781e-03, 8.48385319e-02,
          2.79389113e-01, 9.40640718e-02, 6.88443054e-03, 2.18372531e-02,
          3.22299361e-01, 3.22299361e-01, 1.53660285e-03, 4.25929623e-03,
          8.77601951e-02, 3.22299361e-01, 6.55531660e-02, 9.58658988e-04,
          2.93464493e-02, 3.22299361e-01, 3.22299361e-01, 5.36331208e-03,
          5.22559695e-03, 1.57867193e-01, 3.22299361e-01, 6.81744292e-02,
          4.42517339e-04, 2.25673858e-02, 2.79510975e-01, 2.79038131e-01,
          1.90017908e-03, 2.23105983e-03, 9.55118835e-02, 3.22299361e-01,
          6.94586039e-02, 1.21558702e-03, 1.51536604e-02, 4.84564938e-02,
          4.67174873e-02, 1.67071281e-04, 1.16865046e-03, 3.28679793e-02,
          2.24118844e-01, 2.45160218e-02, 6.57361888e-05, 2.54101842e-03,
          1.63150832e-01, 1.36052936e-01, 2.90575743e-01, 2.12050229e-01,
          1.35907903e-01, 3.02605480e-01, 9.69003662e-02, 1.65759712e-01,
          3.66749950e-02, 2.22338252e-02, 3.97327207e-02, 3.02605480e-01,
          3.02605480e-01, 5.02333008e-02, 4.76321205e-02, 2.24002421e-01,
          3.02605480e-01, 2.54291624e-01, 1.38123531e-03, 4.23174119e-03,
          4.81242761e-02, 8.76922756e-02, 7.21687824e-03, 2.26053242e-02,
          7.85950478e-03, 1.80297736e-02, 6.13890123e-03, 3.71575006e-03,
          1.68236569e-02, 2.02951714e-01, 3.02605480e-01, 6.20733239e-02,
          3.67075987e-02, 6.68758377e-02, 3.02605480e-01, 1.80185154e-01,
          2.53649443e-01, 2.97115713e-01, 2.97115713e-01, 2.62647778e-01,
          1.38059661e-01, 2.97115713e-01, 2.97115713e-01, 2.97115713e-01,
          1.12508968e-01, 2.17280313e-01, 2.97115713e-01, 1.40965274e-02,
          5.99484984e-03, 8.62994492e-02, 2.97115713e-01, 1.50495887e-01,
          1.96886621e-02, 2.18501557e-02, 3.86039428e-02, 6.79011345e-02,
          8.33209082e-02, 1.60991818e-01, 1.18307248e-01, 2.36215010e-01,
          8.26324075e-02, 6.21123910e-02, 4.19404991e-02, 9.33999009e-03,
          2.32355408e-02, 3.72244650e-03, 4.76104580e-03, 2.61953287e-02,
          1.08210534e-01, 3.58502753e-02, 6.74102549e-03, 6.95050089e-03,
          4.48621511e-01, 4.92843628e-01, 4.33441019e-03, 0.,
          3.49033058e-01, 5.92773974e-01, 2.43821740e-01, 3.01378779e-03,
          1.10238185e-02, 1.61402300e-03, 9.24510299e-04, 3.26387410e-04,
          0., 2.01644059e-02, 1.25675619e-01, 1.31603237e-02,
          9.72189591e-05, 2.47014978e-04, 0., 0., 0., 0., 3.06390248e-05,
          2.64543630e-02, 6.62236428e-03, 0., 0., 0., 0., 0., 0., 0., 0.,
          0., 0., 0., 0., 0., 2.20825290e-03, 5.22027798e-02,
          5.68955531e-03, 0., 0., 0., 0., 4.69181454e-03, 7.50044659e-02,
          4.51561838e-01, 4.51561838e-01, 4.43332493e-01, 2.96166033e-01,
          2.09746540e-01, 4.51561838e-01, 2.17033535e-01, 0., 0., 0., 0.,
          0., 0., 0., 0., 0., 0., 0., 0., 0., 0., 0., 0., 0., 0. ]
      - [ 2.82577902e-01, 2.82577902e-01, 1.96436327e-02, 9.24183801e-03,
          4.83535863e-02, 2.82577902e-01, 7.11240694e-02, 3.85449454e-03,
          2.52396818e-02, 2.82577902e-01, 2.82577902e-01, 1.86848491e-02,
          1.48059232e-02, 1.98191300e-01, 2.82577902e-01, 8.27240124e-02,
          6.63274806e-03, 5.54566719e-02, 2.22935632e-01, 2.82577902e-01,
          1.50307149e-01, 1.77814476e-02, 3.30703408e-02, 2.82577902e-01,
          2.82577902e-01, 5.86056150e-02, 9.88558307e-03, 1.30642876e-01,
          1.71066225e-01, 1.57009494e-02, 8.66329111e-03, 7.80065656e-02,
          2.82577902e-01, 1.00782633e-01, 1.30943144e-02, 6.45605056e-03,
          3.05269331e-01, 2.01307476e-01, 1.75131317e-02, 7.20181093e-02,
          3.05269331e-01, 3.05269331e-01, 7.81276450e-02, 3.52117792e-02,
          2.17660263e-01, 2.85452873e-01, 1.67041216e-02, 2.20498163e-02,
          3.05269331e-01, 3.05269331e-01, 1.51799932e-01, 4.68050018e-02,
          2.28058755e-01, 3.05269331e-01, 4.46771942e-02, 3.70388515e-02,
          2.65178038e-03, 1.98273417e-02, 1.63276300e-01, 1.98764771e-01,
          1.85656194e-02, 1.72531442e-03, 1.01335188e-02, 1.29740965e-02,
          2.08832859e-03, 2.87076104e-02, 2.71529555e-01, 1.47351071e-01,
          1.60457958e-02, 2.51994445e-03, 6.07958883e-02, 8.24611038e-02,
          6.49485737e-02, 4.53939103e-03, 6.79703802e-02, 2.85093635e-01,
          1.53490543e-01, 1.25812180e-02, 3.12113501e-02, 2.85093635e-01,
          2.85093635e-01, 4.64750454e-03, 3.79172177e-03, 4.14077751e-02,
          1.18745022e-01, 1.09387599e-02, 7.52472261e-04, 2.37264074e-02,
          2.34236330e-01, 1.38837352e-01, 9.86989588e-03, 3.61108631e-02,
          2.85093635e-01, 2.85093635e-01, 8.21028352e-02, 1.63474854e-03,
          8.59283134e-02, 2.85093635e-01, 2.07640707e-01, 2.97406479e-03,
          4.67387810e-02, 2.85093635e-01, 2.85093635e-01, 1.96593180e-02,
          1.43653795e-03, 2.44238243e-01, 2.85093635e-01, 1.43321499e-01,
          6.46644682e-02, 2.67532736e-01, 2.67532736e-01, 1.22961842e-01,
          4.88563441e-03, 2.57997125e-01, 2.67532736e-01, 2.67532736e-01,
          6.97711185e-02, 5.98626807e-02, 3.94379087e-02, 3.55286449e-02,
          3.16717438e-02, 4.97925794e-03, 1.03048727e-01, 8.99368078e-02,
          1.14712209e-01, 6.90774620e-02, 5.07186875e-02, 8.05882514e-02,
          2.67532736e-01, 2.67532736e-01, 5.06398082e-02, 2.27921698e-02,
          2.67532736e-01, 2.67532736e-01, 1.59154579e-01, 2.05202237e-01,
          1.13763846e-02, 7.33058304e-02, 2.51645625e-01, 8.81541371e-02,
          1.51182204e-01, 1.19623117e-01, 2.08887205e-01, 2.30054855e-01,
          2.05840349e-01, 3.94190755e-03, 2.56566564e-04, 3.71891074e-04,
          7.40037765e-03, 6.29638880e-02, 7.06037432e-02, 9.09263343e-02,
          1.67851001e-01, 3.24061635e-04, 3.82862426e-03, 3.70132364e-02,
          1.05741315e-01, 1.04700569e-02, 8.16469314e-04, 6.39418885e-03,
          9.76156536e-03, 2.94650043e-03, 3.91553879e-01, 1.97731629e-02,
          3.93354893e-02, 2.28873745e-01, 2.67241985e-01, 3.91553879e-01,
          3.91553879e-01, 3.91553879e-01, 3.91553879e-01, 2.29827850e-03,
          8.94957874e-03, 5.27205598e-03, 0., 2.20905640e-03,
          9.55115259e-03, 4.85618338e-02, 2.26063803e-02, 6.70890324e-03,
          1.50458654e-04, 6.78314790e-02, 3.08213562e-01, 1.50522366e-01,
          6.90546166e-03, 4.06472536e-04, 1.31463066e-01, 1.50957271e-01,
          1.46588655e-02, 2.87239236e-04, 1.22344509e-01, 3.08213562e-01,
          1.67780399e-01, 4.92437556e-03, 4.66744765e-04, 3.08213562e-01,
          3.08213562e-01, 2.61874199e-02, 8.27465858e-03, 2.10832655e-01,
          2.90440321e-01, 1.41394837e-02, 0., 2.53478438e-02,
          1.87816069e-01, 5.08435331e-02, 0., 1.06774094e-02,
          3.08213562e-01, 3.08213562e-01, 2.58817039e-02, 0.,
          7.51987025e-02, 3.08213562e-01, 2.15674326e-01, 0.,
          3.13432626e-02, 4.20151353e-02, 2.64142632e-01, 2.64142632e-01,
          6.52615055e-02, 2.35314202e-02, 2.29201168e-01, 2.64142632e-01,
          1.28831655e-01, 1.10274017e-01, 5.78626292e-03, 5.48360683e-02,
          2.64142632e-01, 1.32919684e-01, 2.03105778e-01, 1.10438466e-01,
          1.27418980e-01, 1.34032905e-01, 1.65126249e-02, 1.80093609e-02,
          2.64142632e-01, 2.64142632e-01, 7.47051984e-02, 3.73787759e-03,
          9.13118199e-02, 2.64142632e-01, 2.62459666e-01, 1.14251487e-01,
          2.82205199e-03, 3.62999402e-02, 2.40114972e-01, 1.61651999e-01,
          2.88360436e-02, 2.49542687e-02, 2.42788658e-01, 2.64142632e-01,
          1.12289093e-01, 2.74561369e-03, 1.35661839e-02, 9.18151066e-02,
          1.07053310e-01, 3.01687479e-01, 1.92815885e-01, 6.52966648e-02,
          9.55449194e-02, 3.92229483e-02, 9.27339718e-02, 1.71535686e-02,
          0., 1.76386232e-03, 1.75392888e-02, 1.54846935e-02,
          3.51909897e-03, 2.94412393e-03, 3.20940584e-01, 2.63939630e-02,
          1.96864130e-03, 8.40946808e-02, 3.20940584e-01, 1.03539288e-01,
          8.59481841e-03, 8.00842792e-02, 3.20940584e-01, 3.20940584e-01,
          3.20940584e-01, 2.43806224e-02, 1.05071049e-02, 3.20940584e-01,
          3.20940584e-01, 6.24516420e-02, 1.73563473e-02, 2.46183336e-01,
          6.80878535e-02, 2.78262079e-01, 1.72705293e-01, 0.,
          2.12583505e-03, 1.42357171e-01, 2.14333758e-01, 2.13360079e-02,
          1.11856521e-03, 4.74490821e-02, 2.78262079e-01, 2.57811755e-01,
          0., 1.37199706e-03, 2.41096973e-01, 2.78262079e-01,
          7.30039477e-02, 1.01488811e-04, 2.78262079e-01, 2.78262079e-01,
          7.19699562e-02, 1.74981207e-04, 9.86974314e-02, 2.78262079e-01,
          2.22597763e-01, 1.52050350e-02, 3.78191955e-02, 7.37444982e-02,
          2.60651499e-01, 6.54681548e-02, 5.64455513e-06, 1.89550631e-02,
          2.78262079e-01, 2.78262079e-01, 1.77494269e-02, 2.20280886e-03 ]
      - [ 3.25426280e-01, 3.25426280e-01, 4.34214845e-02, 8.38616211e-03,
          3.25426280e-01, 3.25426280e-01, 1.76591381e-01, 2.01511029e-02,
          6.56954646e-02, 3.25426280e-01, 7.40656182e-02, 4.24330443e-04,
          1.50469616e-02, 3.25426280e-01, 3.25426280e-01, 1.21443802e-02,
          2.45118188e-03, 1.01919696e-01, 5.48352003e-02, 1.54370651e-01,
          1.09826230e-01, 6.28274158e-02, 4.95335199e-02, 2.82587737e-01,
          2.43724734e-01, 1.25653788e-01, 2.11959910e-02, 7.70923973e-04,
          4.46565391e-04, 2.87458897e-05, 0., 9.51893162e-03,
          2.07007695e-02, 1.16829795e-03, 0., 8.13902298e-05,
          4.20033514e-01, 8.13777521e-02, 1.81420543e-03, 1.02142863e-01,
          4.20033514e-01, 4.20033514e-01, 5.65470904e-02, 3.08626778e-02,
          2.62906641e-01, 2.45418429e-01, 3.30803692e-02, 3.35963967e-04,
          2.63535436e-02, 4.20033514e-01, 3.38037372e-01, 1.20748237e-01,
          5.24807014e-02, 7.83563331e-02, 0., 0., 0., 0., 5.63732639e-04,
          0., 0., 0., 0., 0., 0., 0., 0., 0., 0., 0., 0., 0.,
          1.70425385e-01, 5.87646142e-02, 0., 3.28887291e-02,
          6.48666918e-01, 3.44607234e-01, 5.81253231e-01, 2.51578778e-01,
          1.38831243e-01, 0., 0., 0., 0., 0., 0., 0., 0., 0., 0., 0., 0.,
          0., 0., 0., 0., 0., 0., 0., 0., 0., 0., 0., 0., 0., 0., 0.,
          1.43294074e-02, 4.54276763e-02, 1.94486335e-01, 2.80578792e-01,
          2.79443562e-02, 1.45008154e-02, 2.11849093e-01, 3.50397557e-01,
          1.58751458e-01, 3.92363174e-04, 0., 6.87143824e-04,
          2.37251632e-03, 3.28838592e-04, 0., 1.94532285e-03,
          1.40505992e-02, 6.93802861e-03, 2.86846571e-02, 2.96617970e-02,
          3.49036217e-01, 3.50397557e-01, 4.29271683e-02, 4.78138030e-03,
          1.20718092e-01, 3.50397557e-01, 3.50397557e-01, 1.08170519e-02,
          1.82187755e-03, 5.67099564e-02, 2.07242683e-01, 6.08828338e-03,
          2.50453246e-03, 3.17356326e-02, 3.19648504e-01, 1.60496503e-01,
          0., 0., 0., 0., 0., 0., 0., 0., 0., 0., 0., 0., 0., 0., 0., 0.,
          0., 0., 9.87163335e-02, 0., 7.28254244e-02, 2.76690394e-01, 0.,
          0., 2.14798495e-01, 7.85885096e-01, 4.86617744e-01, 0., 0., 0.,
          0., 0., 0., 0., 0., 0., 0., 0., 0., 0., 0., 0., 0., 0., 0., 0.,
          0., 0., 0., 0., 0., 0., 0., 0., 0., 0., 0., 0., 0., 0., 0., 0.,
          0., 0., 0., 0., 0., 0., 0., 0., 0., 0., 1.65052526e-02,
          9.31036938e-03, 1.85515180e-01, 3.06628406e-01, 2.41183098e-02,
          4.33272682e-03, 3.52072194e-02, 3.06628406e-01, 2.35874176e-01,
          1.89566091e-02, 4.78270371e-03, 1.28833309e-01, 3.06628406e-01,
          2.94471700e-02, 3.10997805e-03, 3.78442109e-02, 3.06628406e-01,
          2.60830611e-01, 5.87559957e-03, 4.11494961e-03, 7.59290904e-02,
          2.61234552e-01, 1.91550795e-02, 8.02356866e-04, 8.67603812e-03,
          1.31538585e-01, 7.01368675e-02, 1.29577853e-02, 1.39474915e-02,
          2.29111984e-01, 3.06628406e-01, 9.30071175e-02, 1.24148764e-02,
          2.88425740e-02, 3.06628406e-01, 3.06628406e-01, 1.28062712e-02,
          2.73487973e-03, 7.22732246e-02, 2.05454201e-01, 2.46487763e-02,
          2.32733460e-03, 2.50688847e-02, 3.51199806e-01, 2.05636621e-01,
          1.43447469e-04, 0., 1.12110283e-05, 2.64056202e-04,
          1.59272327e-04, 7.50753170e-05, 5.58977365e-04, 5.76927327e-03,
          3.40105197e-03, 1.33299753e-02, 2.38476489e-02, 3.85769308e-01,
          4.13283795e-01, 2.08412305e-01, 5.56802489e-02, 9.15206522e-02,
          4.13283795e-01, 4.13283795e-01, 5.12312399e-04, 1.74632168e-03,
          2.80738268e-02, 1.03364691e-01, 3.27080898e-02, 1.61366351e-02,
          3.81612219e-02, 2.00174078e-01, 1.00657411e-01, 0., 0., 0., 0.,
          0., 0., 0., 0., 0., 0., 0., 0., 0., 0., 0., 0., 0., 0., 0., 0.,
          0., 0., 0., 0., 0., 0., 0., 0., 0., 0., 0., 0., 0., 0., 0., 0. ]
      - [ 2.48480797e-01, 8.24132264e-02, 4.64860201e-02, 1.88479617e-01,
          2.48480797e-01, 1.59332052e-01, 2.71305013e-02, 1.28206521e-01,
          2.48480797e-01, 2.48480797e-01, 4.07990366e-02, 4.64616669e-03,
          6.95444047e-02, 2.48480797e-01, 1.63068056e-01, 3.64670181e-03,
          4.61935475e-02, 2.48480797e-01, 8.73539001e-02, 3.75810787e-02,
          7.00564533e-02, 2.48480797e-01, 2.28844896e-01, 7.07554370e-02,
          2.24889871e-02, 2.25053996e-01, 2.48480797e-01, 8.09007213e-02,
          1.34576838e-02, 4.82856594e-02, 2.48480797e-01, 2.48480797e-01,
          5.23011908e-02, 5.56224212e-03, 2.48480797e-01, 2.48480797e-01,
          2.92002171e-01, 7.27276504e-02, 8.85675778e-04, 1.01753943e-01,
          2.92002171e-01, 2.30224550e-01, 2.81867734e-03, 1.34732211e-02,
          2.92002171e-01, 2.92002171e-01, 8.62860233e-02, 7.15495925e-03,
          1.22597978e-01, 2.92002171e-01, 2.76861548e-01, 6.03703503e-03,
          6.24749577e-03, 2.92002171e-01, 7.89089873e-02, 6.25280989e-03,
          4.18037884e-02, 2.40196273e-01, 2.63969630e-01, 5.63501865e-02,
          3.56147462e-03, 2.35237867e-01, 2.92002171e-01, 3.32947522e-02,
          2.20508338e-03, 6.14365097e-03, 4.66431566e-02, 1.35574982e-01,
          4.41093594e-02, 2.65225023e-03, 4.84366491e-02, 1.10524282e-01,
          3.78056675e-01, 2.53592402e-01, 7.56009743e-02, 1.33320987e-01,
          3.78056675e-01, 3.78056675e-01, 6.87698871e-02, 7.73936138e-02,
          3.78056675e-01, 2.03104138e-01, 1.08318731e-01, 5.62106669e-02,
          2.62674596e-03, 2.44655728e-01, 3.78056675e-01, 1.00408629e-01,
          1.09810829e-01, 1.12575963e-01, 1.78030208e-02, 1.18185487e-03,
          0., 2.16848161e-02, 1.55170023e-01, 6.87749162e-02,
          1.73294079e-03, 8.11109878e-03, 4.04376984e-02, 2.30746431e-04,
          8.13119914e-05, 0., 3.68595065e-04, 2.52996832e-02,
          1.75854694e-02, 6.59363559e-06, 0., 1.94210981e-04,
          1.20865703e-01, 3.39877643e-02, 2.75696777e-02, 2.18266860e-01,
          1.16544306e-01, 2.19401158e-02, 3.17876181e-03, 7.09573179e-02,
          1.46338716e-01, 2.25985751e-01, 3.09911016e-02, 7.20118582e-02,
          2.65524566e-01, 2.65524566e-01, 5.04539721e-02, 4.49038390e-03,
          2.17309177e-01, 2.65524566e-01, 2.65524566e-01, 1.59087643e-01,
          1.25341071e-02, 4.53112014e-02, 2.65524566e-01, 2.65524566e-01,
          2.38253772e-02, 2.36768443e-02, 2.09633246e-01, 2.65524566e-01,
          6.07718416e-02, 1.80545710e-02, 1.40508816e-01, 2.65524566e-01,
          2.32867077e-01, 5.45393024e-03, 2.26217397e-02, 2.65524566e-01,
          1.79643288e-01, 2.29946673e-02, 6.91924319e-02, 2.65472800e-01,
          2.65472800e-01, 4.20494787e-02, 6.36716839e-03, 2.24089280e-01,
          2.65472800e-01, 1.00402936e-01, 2.64411457e-02, 3.48670371e-02,
          1.54409036e-01, 1.53822958e-01, 2.62942035e-02, 2.44586039e-02,
          1.62834242e-01, 2.65472800e-01, 2.44320542e-01, 3.97759564e-02,
          3.64139825e-02, 2.65472800e-01, 2.65472800e-01, 1.32388353e-01,
          4.50349972e-03, 7.08054081e-02, 2.65472800e-01, 1.18661195e-01,
          4.67926152e-02, 3.98644507e-02, 2.19397277e-01, 2.65472800e-01,
          8.81487578e-02, 5.25988750e-02, 1.56384155e-01, 2.65472800e-01,
          1.58158571e-01, 4.28375825e-02, 5.09872958e-02, 1.12961069e-01,
          2.11117029e-01, 8.64038467e-02, 1.60240799e-01, 3.29903424e-01,
          3.29903424e-01, 1.33924070e-03, 3.96596326e-04, 1.09590110e-04,
          0., 1.12862745e-03, 6.67704176e-03, 2.14141719e-02,
          2.24206019e-02, 6.05038134e-03, 1.97736889e-01, 7.86395594e-02,
          8.26470181e-02, 2.48105675e-01, 3.29903424e-01, 3.22000891e-01,
          3.29903424e-01, 3.29903424e-01, 3.29903424e-01, 1.51780644e-03,
          7.57138419e-04, 2.09217455e-04, 0., 6.42260630e-03,
          2.55273730e-02, 5.40204793e-02, 4.07813080e-02, 9.24494397e-03,
          2.32878849e-01, 1.05022959e-01, 3.95922139e-02, 2.58467436e-01,
          2.58467436e-01, 2.23955795e-01, 3.75046432e-02, 1.33115083e-01,
          2.58467436e-01, 1.53769657e-01, 1.99265592e-02, 1.22519964e-02,
          1.26249865e-01, 2.58467436e-01, 1.14688352e-01, 4.78285318e-03,
          8.96013379e-02, 2.58467436e-01, 5.51303774e-02, 8.80259275e-03,
          3.55746374e-02, 2.58467436e-01, 2.58467436e-01, 1.21399499e-02,
          1.03223966e-02, 1.19365431e-01, 2.58467436e-01, 8.89121071e-02,
          8.50168243e-03, 5.42478003e-02, 2.58467436e-01, 2.58467436e-01,
          4.43769945e-03, 8.73168651e-03, 1.87638476e-01, 2.58467436e-01,
          1.23928353e-01, 1.78443305e-02, 8.49864539e-03, 1.07028045e-01,
          3.00276577e-01, 9.44066495e-02, 2.51310738e-03, 5.66778742e-02,
          2.50110000e-01, 3.97248007e-02, 1.85587127e-02, 1.10351583e-02,
